svm_type c_svc
kernel_type linear
nr_class 4
total_sv 1583
rho -0.163046 4.04657 0.653758 3.66273 1.2698 -3.3251
label 2 3 1 4
nr_sv 422 489 666 6
SV
24.25146506416637 24.25146506416637 0 1:0.78164035 2:0.74462241 3:0.74552894 4:0.71884441 
24.25146506416637 24.25146506416637 0 1:0.88043523 2:0.75902027 3:0.46192145 4:0.73699892 
24.25146506416637 24.25146506416637 0 1:1.1537677 2:1.0501765 3:0.93355602 4:0.9218449 
24.25146506416637 24.25146506416637 0 1:0.97099721 2:1.0117823 3:1.1544878 4:1.3633296 
24.25146506416637 0 0 1:1.4007549 2:1.445317 3:1.2140297 4:0.99198729 
24.25146506416637 24.25146506416637 0 1:0.69766474 2:0.61984116 3:0.61391002 4:1.0514021 
0 24.25146506416637 0 1:0.62521517 2:0.60384357 3:0.24882409 4:1.2775083 
24.25146506416637 24.25146506416637 0 1:0.81127882 2:0.80221373 3:0.59197348 4:1.019219 
0 24.25146506416637 0 1:0.60545617 2:0.64223778 3:0.20495111 4:1.1537275 
24.25146506416637 24.25146506416637 0 1:0.7701143 2:0.83100939 3:0.72672623 4:1.0786339 
24.25146506416637 24.25146506416637 0 1:0.75200188 2:0.78781593 3:0.68912083 4:0.99198729 
24.25146506416637 24.25146506416637 0 1:0.66308653 2:0.64703709 3:0.3271687 4:0.87728381 
24.25146506416637 24.25146506416637 0 1:0.92324632 2:0.85820532 3:1.0683087 4:0.56783187 
24.25146506416637 24.25146506416637 0 1:1.117543 2:1.0885707 3:1.1356851 4:1.1859105 
24.25146506416637 24.25146506416637 0 1:0.73388952 2:0.74622214 3:0.61234307 4:1.0093166 
24.25146506416637 24.25146506416637 0 1:0.79645962 2:0.85980511 3:0.71419108 4:1.0629549 
24.25146506416637 24.25146506416637 0 1:0.80633909 2:0.70462841 3:0.52616405 4:0.72544605 
0 24.25146506416637 0 1:0.68943185 2:0.7062282 3:0.31463358 4:0.98208487 
24.25146506416637 24.25146506416637 0 1:0.8475036 2:0.80381352 3:0.76589853 4:0.93009692 
24.25146506416637 24.25146506416637 0 1:0.87384892 2:0.88380146 3:1.1200162 4:0.83932436 
24.25146506416637 24.25146506416637 0 1:0.78658009 2:0.91419691 3:0.7690323 4:1.0291215 
24.25146506416637 24.25146506416637 0 1:0.672966 2:0.66783392 3:0.47445658 4:1.0043654 
24.25146506416637 24.25146506416637 0 1:0.86561602 2:0.79741448 3:0.92728847 4:0.51419353 
24.25146506416637 24.25146506416637 0 1:0.74870872 2:0.68703109 3:0.58413905 4:0.50511628 
0 24.25146506416637 0 1:0.63015491 2:0.70142889 3:0.37887615 4:1.1264957 
24.25146506416637 24.25146506416637 0 1:0.78328693 2:0.800614 3:0.86617965 4:0.80136496 
0 24.25146506416637 0 1:0.80139935 2:0.77501786 3:0.55750185 4:1.3872606 
0 24.25146506416637 0 1:0.64332753 2:0.61824143 3:0.21591936 4:1.3129921 
0.2286243441883004 0 0 1:0.90348738 2:0.95899016 3:0.76119787 4:1.3311466 
24.25146506416637 24.25146506416637 0 1:0.78493351 2:0.69183034 3:0.96646076 4:1.1982886 
24.25146506416637 24.25146506416637 0 1:0.87055576 2:0.90779787 3:0.92885536 4:1.0398492 
24.25146506416637 24.25146506416637 0 1:0.99898911 2:1.1029686 3:1.4192926 4:0.98703611 
24.25146506416637 24.25146506416637 0 1:0.71248394 2:0.58304667 3:0.43841806 4:0.59423846 
24.25146506416637 24.25146506416637 0 1:0.80304593 2:0.81661159 3:0.66718435 4:1.1900365 
24.25146506416637 24.25146506416637 0 1:0.76023483 2:0.77501786 3:0.58883971 4:1.047276 
24.25146506416637 24.25146506416637 0 1:0.91172028 2:1.0277798 3:0.93982357 4:1.2420244 
24.25146506416637 24.25146506416637 0 1:0.60545617 2:0.60864288 3:0.24412341 4:0.76588112 
24.25146506416637 24.25146506416637 0 1:0.7503553 2:0.7398231 3:0.50109375 4:0.8302471 
24.25146506416637 24.25146506416637 0 1:0.77340746 2:0.74462241 3:0.49325928 4:1.0802842 
24.25146506416637 24.25146506416637 0 1:0.88537496 2:0.99578464 3:0.87244719 4:1.2263455 
0 24.25146506416637 0 1:0.76846772 2:0.82621014 3:0.58883971 4:1.2486261 
24.25146506416637 24.25146506416637 0 1:0.84915018 2:0.91099739 3:0.76589853 4:1.0662558 
24.25146506416637 24.25146506416637 0 1:0.80633909 2:0.83900821 3:0.66561747 4:0.9886865 
24.25146506416637 24.25146506416637 0 1:0.91336685 2:0.93339401 3:0.73299378 4:0.93339777 
24.25146506416637 24.25146506416637 0 1:0.80139935 2:0.77341807 3:0.69695526 4:1.0877111 
24.25146506416637 24.25146506416637 0 1:0.67625916 2:0.76381952 3:0.83484179 4:1.0208695 
24.25146506416637 24.25146506416637 0 1:1.1405951 2:1.1957545 3:1.4412291 4:1.0101418 
24.25146506416637 24.25146506416637 0 1:0.66967285 2:0.60224384 3:0.4070802 4:0.72544605 
24.25146506416637 24.25146506416637 0 1:0.79316646 2:0.81181228 3:0.46975592 4:1.0679061 
0 24.25146506416637 0 1:0.52971345 2:0.47906235 3:0.0028220126 4:0.94495064 
0 24.25146506416637 0 1:0.6186288 2:0.69822937 3:0.19398287 4:1.0274712 
0 24.25146506416637 0 1:0.66637969 2:0.67903227 3:0.42118225 4:1.1586788 
0 24.25146506416637 0 1:0.68119889 2:0.71262723 3:0.34440452 4:0.99281251 
0 24.25146506416637 0 1:0.59722328 2:0.6310395 3:0.17204638 4:1.1182437 
0 24.25146506416637 0 1:0.59886986 2:0.5910455 3:0.27232748 4:0.86985695 
24.25146506416637 24.25146506416637 0 1:0.92489296 2:0.92219573 3:0.98996413 4:0.62064499 
0 24.25146506416637 0 1:0.66637969 2:0.7398231 3:0.34910521 4:1.0299468 
24.25146506416637 24.25146506416637 0 1:0.90019423 2:0.840608 3:0.96019316 4:0.59506363 
0 24.25146506416637 0 1:0.70589763 2:0.63583875 3:0.2895633 4:1.1735325 
0 23.42688491525773 0 1:0.68284547 2:0.7654193 3:0.42431602 4:1.2139674 
0 24.25146506416637 0 1:0.66967285 2:0.75742048 3:0.44311875 4:1.0134426 
24.25146506416637 24.25146506416637 0 1:0.91666001 2:0.80541325 3:0.8520776 4:0.57938474 
24.25146506416637 24.25146506416637 0 1:0.81951171 2:0.89819932 3:0.63114583 4:1.1380486 
24.25146506416637 24.25146506416637 0 1:0.84915018 2:0.86620414 3:0.5904066 4:0.77990961 
0 24.25146506416637 0 1:0.65979338 2:0.61984116 3:0.24569032 4:1.0068411 
24.25146506416637 24.25146506416637 0 1:0.70919079 2:0.72222579 3:0.49952686 4:0.69821429 
24.25146506416637 24.25146506416637 0 1:0.8475036 2:0.95579064 3:0.79723638 4:1.2205691 
24.25146506416637 24.25146506416637 0 1:0.692725 2:0.62304068 3:0.47602347 4:0.84675121 
24.25146506416637 24.25146506416637 0 1:0.86232287 2:0.90459836 3:1.0134676 4:0.51501876 
24.25146506416637 24.25146506416637 0 1:0.77176088 2:0.74302262 3:0.57003701 4:0.93422294 
24.25146506416637 24.25146506416637 0 1:1.0681455 2:0.82141083 3:0.73456067 4:1.2213943 
0 24.25146506416637 0 1:0.63180149 2:0.64703709 3:0.24255653 4:1.2511017 
24.25146506416637 24.25146506416637 0 1:0.97758353 2:0.86940366 3:0.63427961 4:0.85087723 
24.25146506416637 24.25146506416637 0 1:0.68778521 2:0.720626 3:0.39611197 4:0.94825143 
24.25146506416637 24.25146506416637 0 1:0.83433098 2:0.800614 3:0.85364449 4:0.82282025 
0 24.25146506416637 0 1:0.66802627 2:0.65663564 3:0.31149977 4:1.0563533 
0 24.25146506416637 0 1:0.68943185 2:0.6854313 3:0.3882775 4:0.99693853 
24.25146506416637 24.25146506416637 0 1:0.91336685 2:1.0485767 3:1.1403857 4:1.3559028 
0 24.25146506416637 0 1:0.63674122 2:0.57344812 3:0.15167677 4:0.79311287 
24.25146506416637 24.25146506416637 0 1:0.65485364 2:0.65503585 3:0.57160389 4:0.66108006 
24.25146506416637 24.25146506416637 0 1:0.79481304 2:0.86460435 3:0.85364449 4:1.3237197 
24.25146506416637 24.25146506416637 0 1:1.1801131 2:1.1877558 3:1.630823 4:0.93092215 
0 24.25146506416637 0 1:0.68613863 2:0.67743254 3:0.4493863 4:1.3105165 
24.25146506416637 24.25146506416637 0 1:0.83433098 2:0.73662359 3:0.57787144 4:0.80384052 
24.25146506416637 24.25146506416637 0 1:0.91336685 2:0.85020655 3:0.9163202 4:0.4894374 
24.25146506416637 24.25146506416637 0 1:0.81786513 2:0.83740848 3:0.6546492 4:0.9598043 
24.25146506416637 24.25146506416637 0 1:0.87384892 2:0.91099739 3:1.1059141 4:0.90699118 
0 24.25146506416637 0 1:0.64168096 2:0.60224384 3:0.14384231 4:0.82116985 
0 24.25146506416637 0 1:0.6383878 2:0.57184839 3:0.1673457 4:1.0588289 
0 24.25146506416637 0 1:0.62521517 2:0.6310395 3:0.21905315 4:1.2469757 
0 24.25146506416637 0 1:0.62356859 2:0.57184839 3:0.11563826 4:1.1784837 
24.25146506416637 24.25146506416637 0 1:0.80304593 2:0.82940966 3:0.60607553 4:0.96475554 
24.25146506416637 24.25146506416637 0 1:0.89854765 2:0.82940966 3:0.80663776 4:0.84014958 
24.25146506416637 24.25146506416637 0 1:0.79810619 2:0.73022455 3:0.4305836 4:0.84014958 
0 24.25146506416637 0 1:0.63015491 2:0.61664164 3:0.25195789 4:1.0002394 
24.25146506416637 24.25146506416637 0 1:0.73882926 2:0.69822937 3:0.53556538 4:0.78403562 
0 24.25146506416637 0 1:0.66473311 2:0.66783392 3:0.36164033 4:1.0654305 
0 24.25146506416637 0 1:0.75364846 2:0.81661159 3:0.48542482 4:1.1595039 
0 24.25146506416637 0 1:0.66308653 2:0.66303468 3:0.31776735 4:1.002715 
24.25146506416637 24.25146506416637 0 1:1.0088686 2:1.0053833 3:1.0181682 4:1.0093166 
24.25146506416637 24.25146506416637 0 1:0.84421045 2:0.81341207 3:0.72359246 4:0.83107233 
24.25146506416637 24.25146506416637 0 1:0.91501343 2:0.82141083 3:0.65621608 4:0.9276213 
0 24.25146506416637 0 1:0.82939124 2:0.87260318 3:0.59824109 4:1.2263455 
24.25146506416637 24.25146506416637 0 1:0.90678054 2:0.92379546 3:0.85677826 4:0.88801146 
24.25146506416637 24.25146506416637 0 1:0.77999377 2:0.81821132 3:0.89595062 4:0.95402789 
24.25146506416637 24.25146506416637 0 1:0.67955232 2:0.60384357 3:0.40081266 4:0.9598043 
0 24.25146506416637 0 1:0.64332753 2:0.62783998 3:0.22218692 4:1.0934875 
24.25146506416637 24.25146506416637 0 1:0.87220234 2:0.98778582 3:0.94139045 4:1.0860606 
24.25146506416637 24.25146506416637 0 1:1.0730852 2:1.0549757 3:0.76746541 4:1.0258207 
0 24.25146506416637 0 1:0.82280487 2:0.83100939 3:0.59197348 4:1.2370732 
24.25146506416637 0 0 1:1.0253344 2:1.2309493 3:1.224998 4:1.2015895 
24.25146506416637 24.25146506416637 0 1:0.82280487 2:0.73502386 3:0.77529991 4:1.0414996 
0 24.25146506416637 0 1:0.82609808 2:0.78941566 3:0.57473767 4:1.2048903 
0 24.25146506416637 0 1:0.60710275 2:0.57824743 3:0.23628896 4:0.82777148 
24.25146506416637 0 0 1:0.95617795 2:1.0741729 3:0.96332699 4:1.356728 
24.25146506416637 24.25146506416637 0 1:1.1702335 2:1.2421476 3:1.500771 4:1.0580037 
0 24.25146506416637 0 1:0.75364846 2:0.77661759 3:0.5512343 4:1.2436749 
24.25146506416637 24.25146506416637 0 1:0.7898733 2:0.88540125 3:0.89281684 4:1.0126175 
0 24.25146506416637 0 1:0.62356859 2:0.58304667 3:0.19398287 4:1.3460003 
24.25146506416637 24.25146506416637 0 1:0.71413052 2:0.60864288 3:0.47915727 4:0.47870973 
24.25146506416637 24.25146506416637 0 1:0.78658009 2:0.82780987 3:0.96959454 4:1.1165932 
24.25146506416637 24.25146506416637 0 1:0.7355361 2:0.68383157 3:0.39297819 4:0.74937701 
24.25146506416637 24.25146506416637 0 1:0.75364846 2:0.69982916 3:0.43685117 4:0.82529587 
24.25146506416637 24.25146506416637 0 1:0.80139935 2:0.81981111 3:0.95862627 4:0.94247502 
0 24.25146506416637 0 1:0.49348864 2:0.45506594 3:0.023191612 4:1.0695566 
0 24.25146506416637 0 1:0.70425105 2:0.74622214 3:0.50109375 4:1.0959631 
0 24.25146506416637 0 1:0.70095789 2:0.66303468 3:0.34440452 4:1.0142678 
24.25146506416637 24.25146506416637 0 1:0.75200188 2:0.74302262 3:0.59197348 4:0.98456049 
0 24.25146506416637 0 1:0.68778521 2:0.62783998 3:0.33657005 4:1.067081 
24.25146506416637 24.25146506416637 0 1:0.79316646 2:0.84860677 3:0.62487823 4:1.1405243 
0 24.25146506416637 0 1:0.6581468 2:0.63423902 3:0.34127074 4:1.1157681 
24.25146506416637 24.25146506416637 0 1:0.98252326 2:1.0005839 3:1.2422338 4:0.9218449 
0 24.25146506416637 0 1:0.66143996 2:0.7062282 3:0.31933424 4:1.1330974 
24.25146506416637 24.25146506416637 0 1:1.1554143 2:1.2373483 3:1.4710001 4:1.0547029 
24.25146506416637 24.25146506416637 0 1:0.99075615 2:0.86780387 3:0.61391002 4:1.1710569 
0 24.25146506416637 0 1:0.62192202 2:0.65823537 3:0.56063569 4:1.3072157 
0 24.25146506416637 0 1:0.74047583 2:0.69822937 3:0.43215048 4:1.0580037 
0 11.27103572685453 0 1:0.61533564 2:0.64863682 3:0.13600786 4:1.1438251 
24.25146506416637 24.25146506416637 0 1:0.85408992 2:0.77341807 3:0.72515935 4:0.40856731 
24.25146506416637 24.25146506416637 0 1:0.79810619 2:0.84220773 3:0.51206201 4:0.95072705 
0 24.25146506416637 0 1:0.67131943 2:0.65663564 3:0.27546126 4:1.0860606 
24.25146506416637 0 0 1:0.80139935 2:0.96378946 3:0.71419108 4:1.1702316 
0 24.25146506416637 0 1:0.70095789 2:0.6710335 3:0.2895633 4:1.0811095 
0 24.25146506416637 0 1:0.66143996 2:0.72222579 3:0.45095319 4:1.1380486 
0 24.25146506416637 0 1:0.6581468 2:0.67903227 3:0.31933424 4:1.2577033 
24.25146506416637 24.25146506416637 0 1:1.2295104 2:0.98618609 3:0.91318643 4:0.62064499 
24.25146506416637 24.25146506416637 0 1:0.73224294 2:0.67743254 3:0.44311875 4:0.7832104 
0 24.25146506416637 0 1:0.57911086 2:0.52065611 3:0.1062369 4:1.1603291 
24.25146506416637 24.25146506416637 0 1:0.97264379 2:0.87260318 3:0.5512343 4:1.2238699 
0 24.25146506416637 0 1:0.77834719 2:0.73342407 3:0.47288969 4:1.0959631 
24.25146506416637 24.25146506416637 0 1:0.79316646 2:0.78941566 3:0.77216613 4:0.80549097 
24.25146506416637 24.25146506416637 0 1:0.92653954 2:0.9093976 3:0.7188918 4:1.1124673 
24.25146506416637 24.25146506416637 0 1:0.80304593 2:0.6854313 3:0.64211404 4:0.35410374 
24.25146506416637 24.25146506416637 0 1:0.91336685 2:0.98618609 3:0.91005266 4:1.1330974 
24.25146506416637 24.25146506416637 0 1:0.72401005 2:0.71262723 3:0.41648155 4:0.87398297 
24.25146506416637 24.25146506416637 0 1:0.87220234 2:0.7798171 3:0.78626812 4:0.68253541 
0 24.25146506416637 0 1:0.62521517 2:0.53025466 3:0.29583088 4:1.0555282 
24.25146506416637 24.25146506416637 0 1:0.82115829 2:0.84540725 3:0.64368093 4:1.1974634 
0 24.25146506416637 0 1:0.69107842 2:0.69982916 3:0.38044304 4:1.191687 
0 24.25146506416637 0 1:0.66308653 2:0.67903227 3:0.28486261 4:1.2453253 
24.25146506416637 24.25146506416637 0 1:1.1438882 2:1.1189661 3:1.0573405 4:1.1578535 
24.25146506416637 24.25146506416637 0 1:0.84585702 2:0.75902027 3:0.75493032 4:0.65612882 
0 24.25146506416637 0 1:0.67790574 2:0.6854313 3:0.28329572 4:1.1859105 
0 24.25146506416637 0 1:0.70425105 2:0.71742648 3:0.42274913 4:1.0629549 
24.25146506416637 24.25146506416637 0 1:0.692725 2:0.76221979 3:0.43215048 4:0.96227992 
24.25146506416637 24.25146506416637 0 1:0.71907026 2:0.59584481 3:0.50109375 4:0.56618148 
24.25146506416637 24.25146506416637 0 1:0.76846772 2:0.81981111 3:0.59824109 4:1.1339226 
24.25146506416637 24.25146506416637 0 1:0.81621855 2:0.83100939 3:0.77216613 4:0.86408055 
24.25146506416637 24.25146506416637 0 1:0.84421045 2:0.90619808 3:0.82387358 4:1.095138 
24.25146506416637 24.25146506416637 0 1:0.88043523 2:0.83100939 3:0.67188501 4:0.97300762 
24.25146506416637 24.25146506416637 0 1:0.92489296 2:0.89340001 3:0.90848571 4:0.77990961 
0 24.25146506416637 0 1:0.61204249 2:0.56864887 3:0.15637745 4:0.93174732 
0 0.007535058041793788 0 1:0.70754421 2:0.73822337 3:0.30053154 4:1.1710569 
0 24.25146506416637 0 1:0.54782581 2:0.62624019 3:0.012223367 4:0.98373526 
0 24.25146506416637 0 1:0.70095789 2:0.74142289 3:0.4713228 4:1.0646054 
24.25146506416637 24.25146506416637 0 1:0.74047583 2:0.70462841 3:0.43528429 4:0.99198729 
24.25146506416637 24.25146506416637 0 1:0.84091729 2:0.81821132 3:0.82700735 4:1.0654305 
24.25146506416637 24.25146506416637 0 1:0.80469251 2:0.77341807 3:0.53086472 4:0.91441804 
24.25146506416637 24.25146506416637 0 1:0.8326844 2:0.87420291 3:0.77059925 4:1.0967884 
0 24.25146506416637 0 1:0.55276555 2:0.60384357 3:0.24569032 4:0.95485306 
24.25146506416637 24.25146506416637 0 1:0.86561602 2:0.84220773 3:1.2516352 4:0.83519834 
0 24.25146506416637 0 1:0.55770534 2:0.53345418 3:0.11093758 4:1.0084914 
0 24.25146506416637 0 1:0.68119889 2:0.66783392 3:0.32873559 4:1.0786339 
24.25146506416637 24.25146506416637 0 1:0.88537496 2:0.90139884 3:0.76433164 4:1.0241703 
24.25146506416637 24.25146506416637 0 1:0.89854765 2:0.95259112 3:0.90221816 4:0.92514569 
24.25146506416637 24.25146506416637 0 1:0.9446519 2:0.96058995 3:1.0338371 4:0.79228765 
0 24.25146506416637 0 1:0.79975277 2:0.85820532 3:0.48855862 4:1.0802842 
24.25146506416637 24.25146506416637 0 1:0.80469251 2:0.73022455 3:0.41804847 4:0.86160493 
0 24.25146506416637 0 1:0.87220234 2:0.84860677 3:0.64838165 4:1.2816343 
0 24.25146506416637 0 1:0.68778521 2:0.6710335 3:0.45408699 4:1.1463007 
24.25146506416637 24.25146506416637 0 1:0.93971217 2:0.9845863 3:0.9930979 4:0.86325532 
24.25146506416637 24.25146506416637 0 1:0.68778521 2:0.58624619 3:0.43841806 4:0.91606843 
24.25146506416637 24.25146506416637 0 1:0.73388952 2:0.76701903 3:0.80977154 4:0.69078743 
0 24.25146506416637 0 1:0.73388952 2:0.69662964 3:0.32403493 4:1.0943128 
24.25146506416637 24.25146506416637 0 1:1.0994306 2:1.1621597 3:1.3080432 4:0.82364547 
0 24.25146506416637 0 1:0.64168096 2:0.73822337 3:0.37104169 4:1.1520771 
24.25146506416637 24.25146506416637 0 1:1.199872 2:1.0741729 3:0.89438373 4:1.127321 
24.25146506416637 24.25146506416637 0 1:0.87549549 2:0.85660559 3:0.82857424 4:0.74855179 
24.25146506416637 24.25146506416637 0 1:1.0911976 2:1.1685587 3:1.6245555 4:0.97713363 
0 24.25146506416637 0 1:0.61533564 2:0.58784598 3:0.015357151 4:1.1562032 
24.25146506416637 24.25146506416637 0 1:1.0203947 2:0.98138678 3:1.0166013 4:0.7345233 
24.25146506416637 24.25146506416637 0 1:0.66802627 2:0.58304667 3:0.57003701 4:0.60084009 
0 24.25146506416637 0 1:0.68119889 2:0.6662342 3:0.33030251 4:1.0703818 
0 24.25146506416637 0 1:0.79316646 2:0.67903227 3:0.48229104 4:1.1504267 
24.25146506416637 24.25146506416637 0 1:0.91336685 2:0.89180028 3:0.74552894 4:0.93339777 
0 24.25146506416637 0 1:0.69437158 2:0.69822937 3:0.34753832 4:1.0142678 
24.25146506416637 24.25146506416637 0 1:0.81127882 2:0.66783392 3:0.49325928 4:0.82942188 
0 24.25146506416637 0 1:0.66308653 2:0.65663564 3:0.2472572 4:1.208191 
0 24.25146506416637 0 1:0.67131943 2:0.71102744 3:0.41334778 4:1.0687314 
24.25146506416637 24.25146506416637 0 1:0.9100737 2:0.9349938 3:1.0040661 4:0.89048707 
0 24.25146506416637 0 1:0.692725 2:0.68223178 3:0.34440452 4:1.2345976 
24.25146506416637 24.25146506416637 0 1:0.83597755 2:0.82301062 3:0.80350393 4:0.79558849 
24.25146506416637 24.25146506416637 0 1:1.250916 2:1.1173663 3:1.0777102 4:0.80053973 
0 24.25146506416637 0 1:0.68119889 2:0.65023661 3:0.25352478 4:1.296488 
24.25146506416637 24.25146506416637 0 1:1.1587075 2:1.0869709 3:0.76746541 4:0.9218449 
0 24.25146506416637 0 1:0.68943185 2:0.64063805 3:0.20338422 4:1.0365484 
24.25146506416637 24.25146506416637 0 1:1.0039288 2:1.1189661 3:1.1513541 4:1.1454755 
24.25146506416637 24.25146506416637 0 1:0.79481304 2:0.72222579 3:1.4521973 4:0.75680387 
24.25146506416637 24.25146506416637 0 1:0.7503553 2:0.80221373 3:0.77216613 4:1.1859105 
15.97124333444429 24.25146506416637 0 1:0.66473311 2:0.800614 3:0.45722076 4:0.95155227 
0 24.25146506416637 0 1:0.67955232 2:0.66143489 3:0.29269707 4:0.97878402 
0 24.25146506416637 0 1:0.62521517 2:0.65183634 3:0.23785585 4:1.1463007 
24.25146506416637 24.25146506416637 0 1:0.81951171 2:0.82780987 3:0.50892824 4:0.94164979 
0 24.25146506416637 0 1:0.55770534 2:0.47906235 3:0.051395673 4:0.93669856 
24.25146506416637 24.25146506416637 0 1:0.75694168 2:0.67263323 3:0.30993289 4:0.96145475 
0 24.25146506416637 0 1:0.76023483 2:0.79581469 3:0.54966742 4:1.300614 
24.25146506416637 0 0 1:1.1142498 2:0.99898416 3:0.68128633 4:1.2775083 
24.25146506416637 24.25146506416637 0 1:0.87055576 2:0.87260318 3:0.6546492 4:1.1479511 
24.25146506416637 24.25146506416637 0 1:0.73388952 2:0.70142889 3:0.48542482 4:0.86160493 
24.25146506416637 24.25146506416637 0 1:1.1949322 2:1.3045382 3:1.8000474 4:1.0060158 
24.25146506416637 24.25146506416637 0 1:0.82939124 2:0.87740242 3:0.86461276 4:0.68748665 
0 24.25146506416637 0 1:0.75694168 2:0.7654193 3:0.44625252 4:1.0984387 
24.25146506416637 24.25146506416637 0 1:0.6581468 2:0.67583275 3:0.3694748 4:0.69986469 
0 24.25146506416637 0 1:0.53300661 2:0.53025466 3:0.0090895817 4:0.96888155 
24.25146506416637 24.25146506416637 0 1:1.3974618 2:1.2789421 3:1.2077621 4:0.84345037 
24.25146506416637 24.25146506416637 0 1:0.95123821 2:0.99258512 3:0.93982357 4:1.0778086 
0 24.25146506416637 0 1:0.64826727 2:0.59584481 3:0.29739776 4:1.0959631 
24.25146506416637 24.25146506416637 0 1:0.76682115 2:0.78781593 3:0.76433164 4:0.87728381 
0 24.25146506416637 0 1:0.69601816 2:0.58944577 3:0.27859506 4:1.1883861 
0 24.25146506416637 0 1:0.66308653 2:0.55745053 3:0.17674705 4:0.84179997 
24.25146506416637 24.25146506416637 0 1:1.3052531 2:1.3541307 3:1.5697143 4:1.1801341 
24.25146506416637 24.25146506416637 0 1:0.75858825 2:0.72222579 3:0.54339987 4:0.84345037 
24.25146506416637 24.25146506416637 0 1:1.1718801 2:1.3845261 3:1.5524784 4:1.2164431 
24.25146506416637 0 0 1:1.0302742 2:0.98298657 3:0.68442017 4:1.3080409 
0 24.25146506416637 0 1:0.60710275 2:0.60064405 3:0.18771529 4:0.9581539 
24.25146506416637 24.25146506416637 0 1:0.95288479 2:0.9701885 3:0.8599121 4:0.98786128 
0 24.25146506416637 0 1:0.60874933 2:0.62943971 3:0.18301462 4:1.0687314 
0 24.25146506416637 0 1:0.64662069 2:0.56864887 3:0.18144773 4:1.0580037 
24.25146506416637 24.25146506416637 0 1:1.1043702 2:1.2517462 3:1.456898 4:0.91936928 
24.25146506416637 24.25146506416637 0 1:0.99404937 2:0.89180028 3:0.72202557 4:0.74772662 
0 24.25146506416637 0 1:0.6186288 2:0.56384957 3:0.18771529 4:0.94247502 
24.25146506416637 24.25146506416637 0 1:0.53465319 2:0.4694638 3:0.056096349 4:0.58186036 
24.25146506416637 24.25146506416637 0 1:0.93477243 2:0.89979905 3:0.9163202 4:0.96723115 
24.25146506416637 24.25146506416637 0 1:0.79151988 2:0.79741448 3:0.48072416 4:0.85830408 
24.25146506416637 24.25146506416637 0 1:0.73224294 2:0.62783998 3:0.84737694 4:0.6965639 
0 24.25146506416637 0 1:0.68943185 2:0.7254253 3:0.38044304 4:0.98538566 
24.25146506416637 24.25146506416637 0 1:0.81951171 2:0.88220173 3:1.1278507 4:1.2032398 
0 24.25146506416637 0 1:0.66308653 2:0.69822937 3:0.25822544 4:1.0769835 
0 24.25146506416637 0 1:0.70919079 2:0.73022455 3:0.33970386 4:1.1009144 
24.25146506416637 24.25146506416637 0 1:0.80633909 2:0.67583275 3:0.57943839 4:0.71224278 
24.25146506416637 0 0 1:0.88537496 2:0.99738437 3:0.83014113 4:1.2874107 
24.25146506416637 24.25146506416637 0 1:0.987463 2:1.0709733 3:1.0620412 4:1.1198941 
0 24.25146506416637 0 1:0.70754421 2:0.69822937 3:0.25509167 4:0.89213747 
24.25146506416637 24.25146506416637 0 1:0.90513396 2:0.90299857 3:0.89438373 4:1.2180935 
24.25146506416637 24.25146506416637 0 1:0.87220234 2:0.96538919 3:0.70165598 4:1.1000892 
24.25146506416637 24.25146506416637 0 1:0.84091729 2:0.8150118 3:0.77216613 4:0.69491345 
0 24.25146506416637 0 1:0.67790574 2:0.73342407 3:0.47759035 4:1.0580037 
24.25146506416637 24.25146506416637 0 1:0.73224294 2:0.67903227 3:0.49169239 4:0.98291004 
24.25146506416637 0 0 1:1.1191895 2:1.1909553 3:1.0557736 4:1.3847849 
24.25146506416637 24.25146506416637 0 1:0.77505404 2:0.72222579 3:0.44781941 4:1.0745078 
24.25146506416637 24.25146506416637 0 1:0.99898911 2:0.99738437 3:1.0401046 4:0.9276213 
0 24.25146506416637 0 1:0.72894979 2:0.75582075 3:0.70008904 4:1.3996387 
24.25146506416637 24.25146506416637 0 1:0.87714207 2:0.88540125 3:0.82857424 4:0.83849919 
24.25146506416637 24.25146506416637 0 1:0.84256387 2:0.93659353 3:0.87558103 4:1.0769835 
0 24.25146506416637 0 1:0.51489419 2:0.50305873 3:0.040427428 4:0.84427559 
0 24.25146506416637 0 1:0.83433098 2:0.91739643 3:0.76433164 4:1.3047401 
0 24.25146506416637 0 1:0.67790574 2:0.60704309 3:0.35850656 4:1.2865856 
24.25146506416637 24.25146506416637 0 1:0.77505404 2:0.83260918 3:0.52773094 4:1.0035402 
0 24.25146506416637 0 1:0.60051644 2:0.53985322 3:0.22062004 4:0.82612109 
24.25146506416637 24.25146506416637 0 1:0.87714207 2:0.8550058 3:0.48699173 4:1.0200443 
24.25146506416637 24.25146506416637 0 1:0.64991385 2:0.64863682 3:0.30679911 4:0.70729154 
24.25146506416637 24.25146506416637 0 1:0.71413052 2:0.67743254 3:0.35223898 4:0.87975943 
24.25146506416637 24.25146506416637 0 1:0.89690107 2:0.90299857 3:0.80507088 4:1.2445 
24.25146506416637 24.25146506416637 0 1:0.95453137 2:1.0821717 3:0.99936551 4:1.1372234 
24.25146506416637 24.25146506416637 0 1:0.78164035 2:0.78301662 3:0.60137486 4:0.91359282 
24.25146506416637 24.25146506416637 0 1:1.1718801 2:1.0741729 3:1.5963514 4:0.6371491 
24.25146506416637 24.25146506416637 0 1:0.66802627 2:0.68383157 3:0.4493863 4:0.75680387 
0 24.25146506416637 0 1:0.65485364 2:0.63743854 3:0.308366 4:1.0580037 
0 24.25146506416637 0 1:0.68449205 2:0.60064405 3:0.23785585 4:1.1619796 
24.25146506416637 24.25146506416637 0 1:0.79316646 2:0.76381952 3:0.44625252 4:1.0365484 
24.25146506416637 24.25146506416637 0 1:0.71413052 2:0.79581469 3:0.81917286 4:0.8318975 
0 24.25146506416637 0 1:0.58075744 2:0.58144695 3:0.12190583 4:1.0200443 
0 24.25146506416637 0 1:0.60545617 2:0.56065005 3:0.22062004 4:1.1652803 
0 24.25146506416637 0 1:0.76023483 2:0.74782193 3:0.51049513 4:1.1256706 
24.25146506416637 24.25146506416637 0 1:0.71248394 2:0.75902027 3:0.62957889 4:1.0926623 
0 24.25146506416637 0 1:0.51654077 2:0.48386163 3:0.0012551205 4:0.92432052 
0 24.25146506416637 0 1:0.55770534 2:0.5702486 3:0.079599731 4:1.1834348 
0 24.25146506416637 0 1:0.75529504 2:0.84220773 3:0.70322287 4:1.208191 
0 24.25146506416637 0 1:0.5955767 2:0.65183634 3:0.18614841 4:1.099264 
24.25146506416637 24.25146506416637 0 1:0.93641901 2:0.92379546 3:0.86774653 4:0.97465801 
0 24.25146506416637 0 1:0.6383878 2:0.69023061 3:0.43685117 4:1.2296464 
24.25146506416637 24.25146506416637 10.26180009408252 1:0.62521517 2:0.53185439 3:0.51832956 4:0.31944513 
24.25146506416637 24.25146506416637 0 1:0.78164035 2:0.75742048 3:0.52459711 4:1.111642 
24.25146506416637 24.25146506416637 0 1:0.84091729 2:0.78941566 3:0.69538838 4:1.1595039 
0 24.25146506416637 0 1:0.73388952 2:0.7062282 3:0.41804847 4:1.0819347 
24.25146506416637 24.25146506416637 0 1:0.82939124 2:0.79741448 3:0.75179648 4:0.97713363 
24.25146506416637 24.25146506416637 0 1:1.1587075 2:1.1173663 3:1.0589074 4:0.71141756 
24.25146506416637 24.25146506416637 0 1:0.99075615 2:0.91899621 3:0.95079184 4:0.71306801 
24.25146506416637 24.25146506416637 0 1:1.1389484 2:1.0277798 3:0.98526347 4:0.86738133 
24.25146506416637 24.25146506416637 0 1:0.89525449 2:0.9157967 3:0.75493032 4:1.1091664 
0 24.25146506416637 0 1:0.56264508 2:0.45346618 3:0.031026073 4:1.155378 
24.25146506416637 24.25146506416637 0 1:1.1109567 2:1.0837715 3:0.96959454 4:0.36895746 
0 24.25146506416637 0 1:0.67790574 2:0.71102744 3:0.34440452 4:1.1603291 
24.25146506416637 24.25146506416637 0 1:0.90513396 2:0.90139884 3:1.3064764 4:0.96227992 
24.25146506416637 24.25146506416637 0 1:0.90513396 2:0.87740242 3:1.0197351 4:0.69573867 
0 24.25146506416637 0 1:0.5066613 2:0.52225584 3:-0.0065793409 4:1.0984387 
24.25146506416637 24.25146506416637 0 1:0.76352799 2:0.71422696 3:0.45878765 4:0.72379565 
24.25146506416637 24.25146506416637 0 1:0.82939124 2:0.7798171 3:0.77216613 4:0.745251 
24.25146506416637 24.25146506416637 0 1:1.0730852 2:1.0005839 3:0.85364449 4:0.76175511 
0 24.25146506416637 0 1:0.66802627 2:0.51905632 3:0.17204638 4:0.9399994 
0 24.25146506416637 0 1:0.63015491 2:0.60704309 3:0.2268876 4:1.296488 
24.25146506416637 24.25146506416637 0 1:1.2476228 2:1.3109373 3:1.6621609 4:0.8607797 
24.25146506416637 24.25146506416637 0 1:0.89196134 2:0.83420897 3:0.77216613 4:0.99363774 
0 24.25146506416637 0 1:0.6383878 2:0.60064405 3:0.36634102 4:1.1611544 
24.25146506416637 24.25146506416637 0 1:1.1521212 2:1.0789721 3:1.0667418 4:1.0530525 
0 24.25146506416637 0 1:0.71083736 2:0.73182434 3:0.33657005 4:1.039024 
24.25146506416637 24.25146506416637 0 1:0.75858825 2:0.75422096 3:1.0385377 4:0.91771883 
24.25146506416637 24.25146506416637 0 1:0.67461258 2:0.59744453 3:0.49012551 4:1.039024 
24.25146506416637 24.25146506416637 0 1:0.90184081 2:1.09337 3:1.2422338 4:1.2387236 
24.25146506416637 24.25146506416637 0 1:0.94794506 2:0.99738437 3:0.93982357 4:1.324545 
0 24.25146506416637 0 1:0.50830787 2:0.44546738 3:-0.014413802 4:0.99776375 
24.25146506416637 24.25146506416637 0 1:0.83597755 2:0.86300462 3:0.71105731 4:1.1050404 
0 24.25146506416637 0 1:0.63509464 2:0.64703709 3:0.25979236 4:0.99446291 
24.25146506416637 24.25146506416637 0 1:0.89854765 2:0.96858871 3:0.98526347 4:1.0769835 
0 24.25146506416637 0 1:0.58899039 2:0.55745053 3:0.18928219 4:1.0604793 
0 24.25146506416637 0 1:0.59722328 2:0.55745053 3:0.19868354 4:1.2527522 
0 24.25146506416637 0 1:0.6038096 2:0.61184239 3:0.26449302 4:1.1512519 
0 24.25146506416637 0 1:0.62356859 2:0.7062282 3:0.11407136 4:0.96393037 
24.25146506416637 24.25146506416637 0 1:0.90184081 2:0.95579064 3:0.77216613 4:0.69243783 
0 24.25146506416637 0 1:0.64168096 2:0.5366537 3:0.21435247 4:1.1694064 
24.25146506416637 24.25146506416637 0 1:0.71083736 2:0.81021255 3:0.78313434 4:1.2238699 
0 24.25146506416637 0 1:0.65650022 2:0.65503585 3:0.21748625 4:0.94577581 
24.25146506416637 24.25146506416637 0 1:1.1801131 2:1.2629445 3:1.3252791 4:1.1562032 
24.25146506416637 24.25146506416637 24.25146506416637 1:0.62027538 2:0.44066811 3:0.21748625 4:-0.15834862 
0 24.25146506416637 0 1:0.5609985 2:0.58944577 3:0.18614841 4:1.0348979 
0 24.25146506416637 0 1:0.54617923 2:0.53985322 3:0.02162472 4:1.1793089 
24.25146506416637 24.25146506416637 0 1:1.058266 2:1.0517762 3:0.98683035 4:0.83684874 
24.25146506416637 24.25146506416637 0 1:0.76188141 2:0.70942771 3:0.5324316 4:0.89296269 
24.25146506416637 24.25146506416637 0 1:0.94794506 2:1.0389781 3:1.0714425 4:1.2445 
0 24.25146506416637 0 1:0.67955232 2:0.62144095 3:0.27702814 4:1.1661056 
24.25146506416637 24.25146506416637 0 1:1.0418001 2:1.0005839 3:0.68442017 4:0.83684874 
24.25146506416637 24.25146506416637 0 1:0.78493351 2:0.84380752 3:0.70165598 4:0.99363774 
24.25146506416637 24.25146506416637 0 1:0.93971217 2:0.94139284 3:0.75493032 4:1.1941626 
24.25146506416637 24.25146506416637 0 1:0.7898733 2:0.76701903 3:0.7690323 4:0.96558076 
24.25146506416637 24.25146506416637 0 1:0.75694168 2:0.70942771 3:0.47445658 4:0.87233257 
0 24.25146506416637 0 1:0.63015491 2:0.62144095 3:0.45095319 4:1.1174185 
24.25146506416637 24.25146506416637 0 1:0.90842712 2:0.720626 3:0.54810053 4:1.1776584 
24.25146506416637 24.25146506416637 0 1:0.70754421 2:0.7062282 3:0.56533635 4:1.0778086 
0 24.25146506416637 0 1:0.61204249 2:0.5702486 3:0.20181733 4:0.98703611 
24.25146506416637 24.25146506416637 0 1:0.80304593 2:0.81981111 3:1.0401046 4:0.70564115 
0 24.25146506416637 0 1:0.74047583 2:0.64063805 3:0.26292613 4:1.3534272 
0 24.25146506416637 0 1:0.66637969 2:0.71102744 3:0.32403493 4:1.1694064 
24.25146506416637 24.25146506416637 0 1:0.91830659 2:0.89819932 3:1.1043472 4:0.81291783 
0 24.25146506416637 0 1:0.59228355 2:0.54145294 3:0.046694998 4:1.1834348 
0 24.25146506416637 0 1:0.68613863 2:0.66143489 3:0.26135924 4:1.2312968 
24.25146506416637 24.25146506416637 0 1:0.87220234 2:0.77341807 3:0.71419108 4:0.53647411 
0 24.25146506416637 0 1:0.72730321 2:0.66783392 3:0.33343628 4:0.98456049 
24.25146506416637 24.25146506416637 0 1:0.72894979 2:0.67903227 3:0.6468147 4:0.85005206 
24.25146506416637 0 0 1:0.90348738 2:0.95419091 3:0.68128633 4:1.2700814 
24.25146506416637 24.25146506416637 0 1:0.97593695 2:0.77501786 3:0.64524782 4:0.77165753 
0 24.25146506416637 0 1:0.69766474 2:0.73022455 3:0.29896465 4:1.1281462 
0 24.25146506416637 0 1:0.73388952 2:0.67423302 3:0.4305836 4:1.155378 
24.25146506416637 24.25146506416637 0 1:1.0236878 2:0.91099739 3:0.64368093 4:1.0802842 
24.25146506416637 24.25146506416637 0 1:0.72894979 2:0.70942771 3:0.62017757 4:0.86408055 
0 24.25146506416637 0 1:0.64168096 2:0.63743854 3:0.1673457 4:1.1776584 
0 24.25146506416637 0 1:0.60216302 2:0.49825945 3:0.18614841 4:0.86490571 
24.25146506416637 24.25146506416637 0 1:0.83762413 2:0.83100939 3:0.628012 4:1.030772 
24.25146506416637 24.25146506416637 0 1:0.80633909 2:0.87260318 3:0.59980798 4:0.80714136 
24.25146506416637 24.25146506416637 0 1:0.76517457 2:0.75102144 3:0.62487823 4:1.1471258 
24.25146506416637 24.25146506416637 0 1:0.83103782 2:0.78141689 3:0.7376945 4:0.74195015 
0 24.25146506416637 0 1:0.59063697 2:0.51105756 3:0.099969335 4:0.84592599 
24.25146506416637 24.25146506416637 0 1:0.88043523 2:0.93339401 3:0.89281684 4:1.0571785 
24.25146506416637 24.25146506416637 0 1:1.0846113 2:1.0821717 3:1.0526398 4:0.8607797 
24.25146506416637 24.25146506416637 24.25146506416637 1:0.7355361 2:0.60544336 3:0.43685117 4:0.34997773 
24.25146506416637 24.25146506416637 0 1:0.77999377 2:0.6854313 3:0.71262419 4:0.55380338 
0 24.25146506416637 0 1:0.66967285 2:0.72702503 3:0.2707606 4:1.0984387 
0 24.25146506416637 0 1:0.58075744 2:0.49505994 3:0.20495111 4:0.98456049 
24.25146506416637 24.25146506416637 0 1:0.83927071 2:0.75742048 3:0.61391002 4:0.89461309 
0 24.25146506416637 0 1:0.59886986 2:0.6310395 3:0.15010989 4:1.1867357 
0 24.25146506416637 0 1:0.692725 2:0.65343612 3:0.29739776 4:1.0852355 
24.25146506416637 24.25146506416637 2.821250467617417 1:1.1438882 2:0.80381352 3:0.5324316 4:0.45230317 
24.25146506416637 24.25146506416637 0 1:0.96111774 2:0.95899016 3:1.1560547 4:0.88553584 
24.25146506416637 0 0 1:1.1521212 2:1.2981392 3:1.2892406 4:1.6249197 
0 24.25146506416637 0 1:0.63180149 2:0.70302868 3:0.37574238 4:0.91854405 
24.25146506416637 24.25146506416637 0 1:0.72565663 2:0.72702503 3:0.63741338 4:0.96805638 
0 24.25146506416637 0 1:0.71413052 2:0.61984116 3:0.31933424 4:1.2032398 
24.25146506416637 24.25146506416637 0 1:0.8326844 2:0.87260318 3:0.86461276 4:0.93917418 
24.25146506416637 24.25146506416637 0 1:0.77999377 2:0.83580869 3:0.54966742 4:0.99363774 
24.25146506416637 24.25146506416637 0 1:0.71742368 2:0.79101545 3:0.67501879 4:1.0761583 
0 24.25146506416637 0 1:0.65650022 2:0.71742648 3:0.47445658 4:1.0571785 
0 24.25146506416637 0 1:0.56429166 2:0.53985322 3:0.057663243 4:0.87233257 
24.25146506416637 24.25146506416637 0 1:0.9446519 2:0.8902005 3:0.52929783 4:1.1974634 
0 24.25146506416637 0 1:0.66143996 2:0.60704309 3:0.22062004 4:1.0439752 
24.25146506416637 24.25146506416637 0 1:0.78822666 2:0.77501786 3:0.9163202 4:0.73864937 
24.25146506416637 24.25146506416637 0 1:0.87714207 2:0.82940966 3:0.72045869 4:0.78651124 
24.25146506416637 24.25146506416637 0 1:0.99569595 2:1.0005839 3:1.3221453 4:0.87975943 
24.25146506416637 24.25146506416637 0 1:0.63180149 2:0.61344212 3:0.33657005 4:0.89378792 
24.25146506416637 24.25146506416637 0 1:1.1521212 2:1.1365634 3:1.2124628 4:0.5381245 
24.25146506416637 24.25146506416637 0 1:0.7355361 2:0.73022455 3:0.57003701 4:0.99528813 
0 24.25146506416637 0 1:0.64826727 2:0.54785198 3:0.25039098 4:1.2544025 
24.25146506416637 24.25146506416637 0 1:0.71248394 2:0.60704309 3:0.42744982 4:0.49438864 
24.25146506416637 24.25146506416637 0 1:0.88372838 2:0.86780387 3:0.6358465 4:1.010967 
24.25146506416637 24.25146506416637 0 1:1.018748 2:1.1365634 3:1.1215831 4:1.2411993 
24.25146506416637 24.25146506416637 0 1:0.70919079 2:0.73342407 3:0.40237954 4:0.94164979 
0 24.25146506416637 0 1:0.66473311 2:0.61984116 3:0.19241598 4:0.97465801 
0 24.25146506416637 0 1:0.68119889 2:0.69023061 3:0.42274913 4:1.219744 
24.25146506416637 24.25146506416637 0 1:1.1389484 2:1.1669589 3:1.5336758 4:1.0538777 
0 24.25146506416637 0 1:0.74212241 2:0.64703709 3:0.37730926 4:1.0439752 
24.25146506416637 24.25146506416637 0 1:0.79316646 2:0.71742648 3:0.6922546 4:1.208191 
24.25146506416637 24.25146506416637 0 1:1.0072219 2:1.1253651 3:1.3080432 4:1.0365484 
24.25146506416637 24.25146506416637 0 1:0.99075615 2:0.95099139 3:1.2673041 4:0.69161266 
24.25146506416637 24.25146506416637 0 1:0.76352799 2:0.72382551 3:0.5966742 4:0.98538566 
-24.25146506416637 24.25146506416637 0 1:0.94959164 2:1.0229806 3:1.1544878 4:0.85912931 
-24.25146506416637 24.25146506416637 0 1:0.76188141 2:0.76861882 3:0.68912083 4:1.0381988 
-0 24.25146506416637 0 1:1.0911976 2:1.0021837 3:1.2296987 4:0.70894194 
-0 24.25146506416637 0 1:1.0006356 2:0.80701303 3:0.77059925 4:0.47045767 
-24.25146506416637 24.25146506416637 0 1:0.78658009 2:0.86620414 3:0.66875124 4:1.1058656 
-0 24.25146506416637 0 1:1.0961374 2:0.92699498 3:1.0777102 4:0.57195789 
-0 24.25146506416637 0 1:0.91172028 2:0.58944577 3:0.77529991 4:0.54555136 
-24.25146506416637 24.25146506416637 0 1:0.65156043 2:0.77501786 3:0.54183292 4:1.3724068 
-0 24.25146506416637 0 1:1.018748 2:0.94459236 3:1.1168824 4:0.79641372 
-24.25146506416637 24.25146506416637 0 1:0.88866812 2:0.80701303 3:0.68598706 4:0.60744172 
-24.25146506416637 24.25146506416637 0 1:0.85079676 2:0.86940366 3:0.86304587 4:0.7023403 
-0 24.25146506416637 0 1:1.078025 2:1.0821717 3:1.4584649 4:0.54142535 
-24.25146506416637 24.25146506416637 0 1:0.66802627 2:0.55905032 3:0.26605991 4:0.58020997 
-0 24.25146506416637 0 1:0.90842712 2:0.99738437 3:1.0636081 4:0.64457595 
-24.25146506416637 24.25146506416637 0 1:0.92159975 2:0.95419091 3:0.80193704 4:0.90121478 
-24.25146506416637 24.25146506416637 0 1:0.77670062 2:0.88060194 3:0.93355602 4:1.1991138 
-24.25146506416637 24.25146506416637 0 1:0.67955232 2:0.63743854 3:0.69068772 4:1.0233451 
-0 24.25146506416637 0 1:0.91336685 2:1.09337 3:1.574415 4:0.88801146 
-24.25146506416637 24.25146506416637 0 1:0.89525449 2:0.83420897 3:0.77843368 4:0.76588112 
-24.25146506416637 24.25146506416637 0 1:0.78164035 2:0.840608 3:0.94922495 4:0.75102741 
-0 24.25146506416637 0 1:1.0533262 2:0.97498775 3:1.3362473 4:0.36978266 
-24.25146506416637 24.25146506416637 0 1:1.0434468 2:1.1653591 3:1.3973562 4:1.1009144 
-24.25146506416637 24.25146506416637 0 1:0.92818612 2:1.0069829 3:1.195227 4:0.99446291 
-0 24.25146506416637 0 1:0.99075615 2:0.90779787 3:1.3769865 4:0.89708871 
-24.25146506416637 24.25146506416637 0 1:1.0302742 2:1.0725731 3:0.75806409 4:1.1297966 
-24.25146506416637 24.25146506416637 0 1:0.8672626 2:0.80861276 3:0.73612761 4:0.81951946 
-0 24.25146506416637 0 1:0.82609808 2:0.74142289 3:0.83640867 4:0.53317326 
-24.25146506416637 24.25146506416637 0 1:0.80633909 2:0.82461035 3:0.76589853 4:0.84840161 
-0 24.25146506416637 0 1:1.2179844 2:1.1957545 3:1.0855446 4:0.4770593 
-24.25146506416637 24.25146506416637 0 1:0.91172028 2:0.92379546 3:1.0244358 4:0.80879176 
-0 24.25146506416637 24.25146506416637 1:0.6581468 2:0.34948182 3:0.21748625 4:0.12882276 
-24.25146506416637 24.25146506416637 0 1:0.87878865 2:0.74142289 3:0.8599121 4:0.78733647 
-24.25146506416637 24.25146506416637 0 1:0.65650022 2:0.59424502 3:0.25039098 4:0.83354795 
-0 24.25146506416637 0 1:1.0072219 2:0.97178823 3:0.96019316 4:0.56205547 
-0 24.25146506416637 0 1:1.117543 2:1.1653591 3:1.3754196 4:0.60249048 
-0 24.25146506416637 0 1:0.91172028 2:0.88220173 3:1.5665805 4:0.79311287 
-24.25146506416637 24.25146506416637 0 1:0.73388952 2:0.64223778 3:0.58413905 4:0.41434374 
-24.25146506416637 24.25146506416637 0 1:0.82939124 2:0.82621014 3:1.0040661 4:0.69738907 
-24.25146506416637 24.25146506416637 0 1:0.72236347 2:0.79421496 3:0.33813694 4:1.28411 
-24.25146506416637 24.25146506416637 0 1:0.79481304 2:0.78781593 3:0.70792353 4:0.84097475 
-0 24.25146506416637 0 1:0.94135875 2:1.0229806 3:1.2845399 4:0.77825922 
-24.25146506416637 24.25146506416637 0 1:0.81457198 2:0.66463441 3:0.62644511 4:0.57278311 
-0 24.25146506416637 0 1:0.96770406 2:0.86300462 3:0.98056281 4:0.77413315 
-0 24.25146506416637 0 1:1.1109567 2:0.96538919 3:1.2704378 4:0.66190529 
-0 24.25146506416637 0 1:0.99898911 2:0.69502985 3:0.60294175 4:0.4102177 
-24.25146506416637 24.25146506416637 0 1:0.80304593 2:0.81021255 3:0.91005266 4:0.97713363 
-0 24.25146506416637 0 1:0.93477243 2:0.76861882 3:1.4600319 4:0.76423073 
-24.25146506416637 24.25146506416637 0 1:0.93312585 2:0.87420291 3:1.1482203 4:0.8913123 
-0 24.25146506416637 0 1:1.0599126 2:1.0309794 3:1.12315 4:0.51666915 
-24.25146506416637 24.25146506416637 0 1:1.0747318 2:1.1045682 3:1.093379 4:0.96062952 
-24.25146506416637 24.25146506416637 0 1:0.91830659 2:0.82141083 3:0.85364449 4:0.65695405 
-24.25146506416637 24.25146506416637 0 1:0.86890918 2:0.93339401 3:1.181125 4:0.9094668 
-0 24.25146506416637 0 1:0.77176088 2:0.70942771 3:0.89438373 4:0.588462 
-24.25146506416637 24.25146506416637 0 1:0.89196134 2:0.92379546 3:0.96646076 4:0.89791393 
-24.25146506416637 24.25146506416637 0 1:0.6581468 2:0.52865487 3:0.96646076 4:0.84014958 
-24.25146506416637 24.25146506416637 0 1:0.81457198 2:0.89819932 3:0.628012 4:1.2502766 
-0 24.25146506416637 0 1:0.91501343 2:1.013382 3:1.3393811 4:0.44240069 
-24.25146506416637 0 0 1:1.0961374 2:1.2149516 3:1.472567 4:1.1207193 
-24.25146506416637 24.25146506416637 0 1:0.87384892 2:0.78461641 3:0.81290531 4:0.69903952 
-24.25146506416637 24.25146506416637 0 1:0.68613863 2:0.51265728 3:0.3271687 4:0.64375073 
-24.25146506416637 24.25146506416637 0 1:0.71907026 2:0.67263323 3:0.24255653 4:0.78733647 
-24.25146506416637 24.25146506416637 0 1:0.94959164 2:1.1541609 3:1.3315467 4:0.93752378 
-0 24.25146506416637 0 1:1.0961374 2:0.94619209 3:1.1842588 4:0.32357118 
-0 24.25146506416637 0 1:0.81457198 2:0.70782793 3:0.80977154 4:0.2484775 
-0 24.25146506416637 0 1:1.2229241 2:0.93179429 3:0.82073975 4:0.47870973 
-0 24.25146506416637 0 1:1.1521212 2:1.0517762 3:0.8599121 4:0.56700671 
-24.25146506416637 24.25146506416637 0 1:0.95782459 2:0.98298657 3:1.1435195 4:0.92432052 
-24.25146506416637 24.25146506416637 0 1:0.68449205 2:0.63903826 3:0.38514373 4:1.0514021 
-24.25146506416637 24.25146506416637 0 1:0.98910958 2:0.94779187 3:0.91475332 4:0.84675121 
-0 24.25146506416637 0 1:1.0450934 2:0.95579064 3:1.0667418 4:0.48283577 
-0 24.25146506416637 0 1:1.1438882 2:1.0053833 3:1.021302 4:0.56370586 
-0 24.25146506416637 0 1:0.93147928 2:0.88380146 3:1.2155967 4:0.67510855 
-24.25146506416637 24.25146506416637 0 1:0.81457198 2:0.89659953 3:0.96019316 4:1.2131423 
-24.25146506416637 24.25146506416637 0 1:0.88208181 2:0.91419691 3:0.83797556 4:0.88553584 
-0 24.25146506416637 0 1:1.0516797 2:1.0341789 3:1.2986419 4:0.54720175 
-0 24.25146506416637 0 1:0.91172028 2:0.77181834 3:0.59510726 4:0.37803471 
-0 24.25146506416637 0 1:1.3036066 2:1.013382 3:0.79880327 4:0.75102741 
-0 24.25146506416637 0 1:1.0747318 2:0.98138678 3:1.2014946 4:0.43827468 
-0 24.25146506416637 0 1:1.2245708 2:1.139763 3:1.1309844 4:0.35327855 
-0 24.25146506416637 0 1:1.0681455 2:1.0229806 3:1.3644514 4:0.82529587 
-24.25146506416637 24.25146506416637 0 1:0.90184081 2:1.0581752 3:1.3550501 4:0.97960925 
-0 24.25146506416637 0 1:0.9100737 2:0.96378946 3:1.1482203 4:0.66190529 
-0 24.25146506416637 0 1:0.91830659 2:0.95579064 3:1.2108959 4:0.8302471 
-24.25146506416637 24.25146506416637 0 1:0.85573649 2:0.94619209 3:1.0589074 4:0.79063725 
-24.25146506416637 24.25146506416637 0 1:0.98910958 2:1.0309794 3:1.1764243 4:0.95732868 
-0 24.25146506416637 0 1:1.2048117 2:1.1589601 3:1.2296987 4:0.51666915 
-0 24.25146506416637 0 1:1.0319207 2:1.0517762 3:1.2014946 4:0.8805846 
-24.25146506416637 24.25146506416637 0 1:0.93147928 2:0.96538919 3:1.179558 4:0.90121478 
-0 24.25146506416637 0 1:1.1932857 2:1.0901705 3:1.2218642 4:0.42177057 
-24.25146506416637 24.25146506416637 0 1:0.78822666 2:0.720626 3:0.57003701 4:0.68831182 
-0 24.25146506416637 0 1:0.93806559 2:0.82780987 3:1.107481 4:0.55297822 
-24.25146506416637 24.25146506416637 0 1:0.81457198 2:0.91899621 3:0.54966742 4:1.1669308 
-24.25146506416637 24.25146506416637 0 1:0.82280487 2:0.90459836 3:1.3049095 4:0.99363774 
-0 24.25146506416637 0 1:1.0220412 2:1.1109673 3:1.2265649 4:0.72957206 
-24.25146506416637 24.25146506416637 0 1:0.77834719 2:0.75902027 3:0.57160389 4:0.76918191 
-24.25146506416637 24.25146506416637 0 1:0.95947117 2:0.81821132 3:0.82700735 4:0.76835674 
-24.25146506416637 24.25146506416637 0 1:0.75858825 2:0.6710335 3:0.6734519 4:0.73617375 
-24.25146506416637 24.25146506416637 0 1:0.80798566 2:0.79421496 3:0.50579441 4:1.0802842 
-0 24.25146506416637 5.904913022176696 1:1.1323621 2:0.99898416 3:0.80663776 4:0.23197339 
-24.25146506416637 24.25146506416637 0 1:1.0418001 2:1.0629746 3:1.0119007 4:0.82694632 
-24.25146506416637 24.25146506416637 0 1:0.76682115 2:0.72862482 3:0.6546492 4:0.54390091 
-0 24.25146506416637 0 1:1.219631 2:0.92699498 3:0.89281684 4:0.69573867 
-0 24.25146506416637 0 1:1.2476228 2:1.1349638 3:1.079277 4:0.82694632 
-24.25146506416637 24.25146506416637 0 1:0.68943185 2:0.69822937 3:0.53399849 4:0.78981209 
-0 24.25146506416637 0 1:1.0961374 2:1.1077678 3:1.1482203 4:0.66768169 
-0 24.25146506416637 0 1:1.2970203 2:0.95259112 3:0.89595062 4:0.64375073 
-0 24.25146506416637 0 1:0.95782459 2:1.053376 3:1.5681474 4:0.93834901 
-24.25146506416637 24.25146506416637 0 1:0.92818612 2:0.94459236 3:0.7376945 4:1.2502766 
-24.25146506416637 24.25146506416637 0 1:0.99569595 2:0.80221373 3:0.71732485 4:0.67675894 
-0 24.25146506416637 0 1:1.1735266 2:1.0629746 3:1.1936601 4:0.44570154 
-24.25146506416637 24.25146506416637 0 1:0.79481304 2:0.60544336 3:0.54183292 4:0.39866483 
-0 24.25146506416637 0 1:0.94629848 2:0.94139284 3:0.96646076 4:0.59671408 
-24.25146506416637 24.25146506416637 0 1:1.0747318 2:0.85020655 3:0.66561747 4:0.77413315 
-24.25146506416637 24.25146506416637 0 1:0.97593695 2:0.94139284 3:0.97272831 4:1.0117922 
-24.25146506416637 24.25146506416637 0 1:0.90842712 2:0.8949998 3:0.78000057 4:0.77990961 
-0 24.25146506416637 0 1:1.0286275 2:0.86140484 3:1.2187304 4:0.86655611 
-24.25146506416637 24.25146506416637 0 1:0.85902971 2:0.80701303 3:0.83170801 4:0.78898686 
-24.25146506416637 24.25146506416637 0 1:0.70260447 2:0.75582075 3:0.88498235 4:0.85830408 
-24.25146506416637 24.25146506416637 0 1:0.80963224 2:0.89979905 3:0.97899586 4:0.99446291 
-24.25146506416637 24.25146506416637 0 1:0.92159975 2:0.94619209 3:1.2453675 4:0.93752378 
-24.25146506416637 24.25146506416637 0 1:0.82939124 2:0.74302262 3:0.67815256 4:0.76010466 
-24.25146506416637 24.25146506416637 0 1:0.91336685 2:0.92219573 3:0.95705938 4:0.89956433 
-0 24.25146506416637 0 1:1.1027237 2:1.1013688 3:1.1858257 4:0.78156 
-0 24.25146506416637 0 1:0.87055576 2:0.9701885 3:1.3284129 4:0.63137269 
-0 24.25146506416637 0 1:0.97923011 2:1.0245804 3:1.0698756 4:0.66520607 
-24.25146506416637 24.25146506416637 0 1:0.98087668 2:1.0485767 3:1.0573405 4:0.91524321 
-24.25146506416637 24.25146506416637 0 1:0.89854765 2:0.86780387 3:0.96019316 4:0.81126738 
-0 24.25146506416637 0 1:1.1883459 2:1.066174 3:1.0401046 4:0.57525873 
-24.25146506416637 24.25146506416637 0 1:1.1587075 2:1.1237653 3:1.12315 4:1.0679061 
-0 24.25146506416637 0 1:0.94959164 2:0.86940366 3:0.95079184 4:0.66355568 
-24.25146506416637 24.25146506416637 0 1:0.93641901 2:0.92379546 3:0.8787148 4:0.85087723 
-0 24.25146506416637 0 1:0.86232287 2:0.97658753 3:1.4521973 4:0.8624301 
-24.25146506416637 24.25146506416637 0 1:0.87055576 2:0.83260918 3:0.8520776 4:0.62229544 
-0 24.25146506416637 0 1:0.9298327 2:0.87420291 3:1.2641703 4:0.58516121 
-0 24.25146506416637 0 1:0.81951171 2:0.71902627 3:1.3785534 4:0.69738907 
-0 24.25146506416637 0 1:1.0352138 2:1.0149817 3:1.1341182 4:0.64210033 
-24.25146506416637 24.25146506416637 0 1:0.94794506 2:1.0613748 3:1.0228689 4:1.0571785 
-24.25146506416637 24.25146506416637 0 1:0.83762413 2:0.91739643 3:0.99153101 4:1.1776584 
-24.25146506416637 24.25146506416637 0 1:0.74212241 2:0.69982916 3:0.47445658 4:0.8607797 
-0 24.25146506416637 0 1:0.97593695 2:0.98778582 3:1.0871115 4:0.76670629 
-24.25146506416637 24.25146506416637 0 1:1.10931 2:0.83900821 3:0.51832956 4:0.66438091 
-24.25146506416637 24.25146506416637 0 1:0.87220234 2:1.0389781 3:0.91475332 4:1.3451751 
-0 24.25146506416637 0 1:1.0516797 2:1.0405779 3:1.1419526 4:0.65860444 
-0 24.25146506416637 0 1:0.95453137 2:0.96858871 3:1.0103338 4:0.72792166 
-0 24.25146506416637 0 1:1.1718801 2:1.1925551 3:1.2516352 4:0.62312061 
-24.25146506416637 24.25146506416637 0 1:0.79316646 2:0.74302262 3:0.78313434 4:0.92349529 
-24.25146506416637 24.25146506416637 0 1:0.75694168 2:0.87740242 3:0.628012 4:1.1842601 
-24.25146506416637 24.25146506416637 0 1:0.80139935 2:0.72862482 3:0.66091675 4:0.96145475 
-0 24.25146506416637 0 1:0.76188141 2:0.74782193 3:1.2500683 4:0.83932436 
-24.25146506416637 24.25146506416637 0 1:0.96605748 2:1.0149817 3:0.85834521 4:1.0291215 
-24.25146506416637 24.25146506416637 0 1:1.1010771 2:0.94139284 3:0.94452429 4:0.90203995 
-24.25146506416637 24.25146506416637 0 1:1.0368605 2:1.0517762 3:0.78470123 4:0.86655611 
-0 3.385006782342507 0 1:1.0105152 2:0.97178823 3:1.5133061 4:0.69986469 
-24.25146506416637 24.25146506416637 0 1:0.85244334 2:0.88060194 3:0.51989645 4:1.2634798 
-24.25146506416637 24.25146506416637 0 1:1.1274225 2:1.1493615 3:1.1121818 4:0.90451556 
-0 24.25146506416637 0 1:0.99898911 2:0.99098533 3:1.1732905 4:0.64210033 
-24.25146506416637 24.25146506416637 0 1:0.9644109 2:0.88220173 3:0.83484179 4:0.67675894 
-24.25146506416637 24.25146506416637 0 1:0.81786513 2:0.7654193 3:0.3882775 4:1.1619796 
-24.25146506416637 24.25146506416637 0 1:0.987463 2:0.80221373 3:0.64054716 4:0.74772662 
-0 24.25146506416637 0 1:1.0829648 2:0.94459236 3:1.1873926 4:0.67758417 
-0 24.25146506416637 0 1:1.0335673 2:0.97818726 3:1.1294175 4:0.41186813 
-0 24.25146506416637 0 1:1.0500331 2:0.95259112 3:0.97272831 4:0.59671408 
-24.25146506416637 24.25146506416637 0 1:0.96935064 2:1.0229806 3:1.2140297 4:0.91689366 
-0 24.25146506416637 0 1:0.81621855 2:0.74942166 3:0.88968301 4:0.61321819 
-2.594688372147748 0 0 1:1.2410365 2:1.4181211 3:1.6370907 4:1.2898864 
-24.25146506416637 24.25146506416637 0 1:0.79151988 2:0.99098533 3:0.80507088 4:1.4623542 
-24.25146506416637 24.25146506416637 0 1:0.97429037 2:1.0373784 3:0.8144722 4:0.90121478 
-0 24.25146506416637 0 1:1.1208361 2:1.1637594 3:1.2046283 4:0.87728381 
-24.25146506416637 24.25146506416637 0 1:1.0434468 2:1.0757726 3:1.051073 4:0.82777148 
-24.25146506416637 24.25146506416637 0 1:0.9100737 2:0.93179429 3:0.81760597 4:0.98538566 
-24.25146506416637 24.25146506416637 0 1:0.72565663 2:0.62464046 3:0.50422752 4:0.65777922 
-24.25146506416637 24.25146506416637 0 1:0.8129254 2:0.76861882 3:1.0495061 4:0.75597864 
-0 24.25146506416637 0 1:0.95947117 2:0.91419691 3:1.2077621 4:0.71306801 
-24.25146506416637 24.25146506416637 0 1:0.91336685 2:0.85980511 3:0.85051072 4:0.63384831 
-0 24.25146506416637 0 1:1.1158963 2:1.0517762 3:1.0526398 4:0.44817713 
-24.25146506416637 24.25146506416637 0 1:0.77670062 2:0.78941566 3:0.55593497 4:1.1207193 
-0 24.25146506416637 0 1:1.2393899 2:1.0245804 3:1.0401046 4:0.30211583 
-24.25146506416637 24.25146506416637 0 1:1.0253344 2:0.91419691 3:0.69068772 4:0.84345037 
-24.25146506416637 24.25146506416637 0 1:1.0171015 2:0.99098533 3:0.98839724 4:0.92679614 
-24.25146506416637 24.25146506416637 0 1:0.79645962 2:0.96538919 3:1.1842588 4:1.1545527 
-0 24.25146506416637 0 1:0.96770406 2:0.88220173 3:0.96646076 4:0.60249048 
-24.25146506416637 24.25146506416637 0 1:0.72894979 2:0.66943371 3:0.48072416 4:0.79228765 
-0 24.25146506416637 0 1:1.1554143 2:0.9093976 3:0.93982357 4:0.57195789 
-24.25146506416637 24.25146506416637 0 1:0.85408992 2:0.87420291 3:0.91161954 4:0.91441804 
-24.25146506416637 24.25146506416637 0 1:0.83762413 2:0.73182434 3:0.64368093 4:0.65860444 
-0 24.25146506416637 0 1:1.1323621 2:1.0741729 3:1.2688709 4:0.51006752 
-24.25146506416637 24.25146506416637 0 1:0.77834719 2:0.82461035 3:0.84737694 4:1.236248 
-24.25146506416637 24.25146506416637 0 1:0.83927071 2:0.92859477 3:1.0228689 4:0.92101967 
-0 24.25146506416637 0 1:1.1257758 2:1.146162 3:1.1059141 4:0.74937701 
-24.25146506416637 24.25146506416637 0 1:0.80469251 2:0.800614 3:0.60450864 4:0.96970677 
-0 24.25146506416637 0 1:0.90678054 2:0.94459236 3:1.2140297 4:0.78486085 
-24.25146506416637 24.25146506416637 0 1:0.76188141 2:0.69343013 3:0.46975592 4:0.70151514 
-24.25146506416637 24.25146506416637 0 1:0.91336685 2:1.013382 3:0.99623168 4:1.1760081 
-24.25146506416637 24.25146506416637 0 1:0.69601816 2:0.56544936 3:0.8912499 4:0.83602357 
-0 24.25146506416637 0 1:0.81621855 2:0.83260918 3:1.0589074 4:0.57773435 
-0 24.25146506416637 0 1:0.987463 2:1.0693736 3:1.2641703 4:0.89543831 
-0 24.25146506416637 0 1:0.84421045 2:0.85340607 3:1.1858257 4:0.80796659 
-24.25146506416637 24.25146506416637 0 1:0.72401005 2:0.71262723 3:0.7502296 4:0.57113272 
-0 24.25146506416637 0 1:1.129069 2:1.0325791 3:1.1262838 4:0.41764456 
-24.25146506416637 24.25146506416637 0 1:0.9644109 2:0.87420291 3:0.80037016 4:0.67180771 
-24.25146506416637 24.25146506416637 0 1:0.96770406 2:0.97498775 3:1.1247169 4:1.0778086 
-24.25146506416637 24.25146506416637 0 1:0.72236347 2:0.82621014 3:0.39297819 4:1.3022645 
-0 24.25146506416637 0 1:1.0039288 2:0.79901421 3:0.99153101 4:0.23857504 
-0 24.25146506416637 0 1:1.0220412 2:1.1029686 3:1.1356851 4:0.79311287 
-24.25146506416637 24.25146506416637 0 1:0.653207 2:0.51745659 3:1.0150344 4:0.71389318 
-24.25146506416637 24.25146506416637 0 1:0.95947117 2:1.1109673 3:1.3331136 4:1.0183939 
-24.25146506416637 24.25146506416637 0 1:0.89360791 2:0.83740848 3:0.46975592 4:0.72544605 
-0 24.25146506416637 0 1:1.2805545 2:0.82141083 3:0.54966742 4:0.42919743 
-24.25146506416637 24.25146506416637 0 1:0.71413052 2:0.69822937 3:0.86774653 4:0.56288064 
-0 24.25146506416637 0 1:1.1735266 2:1.0037835 3:0.89595062 4:0.62559623 
-0 24.25146506416637 0 1:0.87220234 2:0.9701885 3:1.3096101 4:0.8302471 
-24.25146506416637 24.25146506416637 0 1:1.1060169 2:1.2245502 3:1.179558 4:1.227996 
-24.25146506416637 24.25146506416637 0 1:0.98252326 2:1.09337 3:1.4396622 4:1.1487763 
-24.25146506416637 24.25146506416637 0 1:0.77670062 2:0.71422696 3:0.48229104 4:0.53152287 
-0 24.25146506416637 0 1:1.0763785 2:1.0213808 3:1.0808439 4:0.62477106 
-24.25146506416637 24.25146506416637 0 1:0.8475036 2:0.92699498 3:0.67188501 4:0.98043442 
-0 24.25146506416637 0 1:0.98252326 2:0.82940966 3:0.86461276 4:0.20309122 
-0 24.25146506416637 0 1:0.95782459 2:0.91099739 3:1.1168824 4:0.63384831 
-0 24.25146506416637 0 1:0.92324632 2:0.94459236 3:0.90378505 4:0.54142535 
-0 24.25146506416637 0 1:1.1636472 2:1.0677738 3:1.0636081 4:0.55132776 
-24.25146506416637 24.25146506416637 0 1:0.76023483 2:0.73182434 3:0.41961536 4:1.2395488 
-24.25146506416637 24.25146506416637 0 1:0.81621855 2:0.77021855 3:0.80977154 4:0.55957985 
-0 24.25146506416637 0 1:0.89690107 2:0.96698898 3:1.2155967 4:0.62312061 
-24.25146506416637 24.25146506416637 0 1:0.91501343 2:0.72862482 3:0.31463358 4:1.4384233 
-24.25146506416637 24.25146506416637 0 1:0.92818612 2:0.88540125 3:0.59980798 4:0.97465801 
-24.25146506416637 24.25146506416637 0 1:0.87549549 2:0.88380146 3:0.94922495 4:0.77908438 
-24.25146506416637 24.25146506416637 0 1:0.66967285 2:0.6454373 3:0.38200995 4:1.0514021 
-24.25146506416637 24.25146506416637 0 1:1.0599126 2:1.0021837 3:1.0730094 4:1.0481013 
-24.25146506416637 24.25146506416637 0 1:0.72730321 2:0.77501786 3:0.54496676 4:1.5333219 
-0 24.25146506416637 0 1:0.96605748 2:0.73022455 3:1.413025 4:0.5686571 
-0 24.25146506416637 0 1:0.86067629 2:0.90619808 3:1.3472155 4:0.70894194 
-24.25146506416637 24.25146506416637 0 1:0.59886986 2:0.56065005 3:0.23628896 4:1.393037 
-0 24.25146506416637 0 1:0.84421045 2:0.63583875 3:1.2782723 4:0.70151514 
-0 24.25146506416637 0 1:0.91172028 2:0.79101545 3:0.91318643 4:0.59506363 
-0 24.25146506416637 0 1:0.87384892 2:0.78461641 3:0.83797556 4:0.57360834 
-24.25146506416637 24.25146506416637 0 1:0.84915018 2:0.81341207 3:0.62487823 4:0.61569381 
-24.25146506416637 24.25146506416637 0 1:0.74541557 2:0.69023061 3:0.49795997 4:0.74195015 
-24.25146506416637 24.25146506416637 0 1:0.76517457 2:0.84380752 3:0.64368093 4:0.8624301 
-24.25146506416637 24.25146506416637 0 1:1.0105152 2:0.96858871 3:0.88028169 4:0.8624301 
-24.25146506416637 24.25146506416637 0 1:0.48196259 2:0.40387365 3:-0.077089496 4:0.90534079 
-24.25146506416637 24.25146506416637 0 1:0.82609808 2:0.89979905 3:1.0808439 4:0.83107233 
-0 24.25146506416637 0 1:0.9298327 2:0.98778582 3:1.2688709 4:0.48036015 
-0 24.25146506416637 0 1:0.97923011 2:1.1301644 3:1.4067575 4:0.74607617 
-0 24.25146506416637 0 1:1.0253344 2:1.0773723 3:1.3174446 4:0.70151514 
-24.25146506416637 24.25146506416637 0 1:0.86561602 2:0.88380146 3:0.92885536 4:0.90038955 
-0 24.25146506416637 0.7927777809322986 1:1.1982254 2:0.87420291 3:0.4305836 4:0.29221338 
-0 24.25146506416637 0 1:0.88043523 2:0.81981111 3:0.89438373 4:0.56040502 
-24.25146506416637 24.25146506416637 0 1:0.86396945 2:0.84540725 3:0.68912083 4:1.1306218 
-24.25146506416637 24.25146506416637 0 1:0.87220234 2:0.89180028 3:0.66718435 4:0.96145475 
-0 24.25146506416637 0 1:0.99569595 2:0.95899016 3:0.89281684 4:0.4415755 
-0 24.25146506416637 0 1:0.89525449 2:1.0725731 3:1.5117393 4:0.93834901 
-0 24.25146506416637 0 1:1.0648524 2:1.0053833 3:0.98996413 4:0.53564888 
-24.25146506416637 24.25146506416637 0 1:0.83597755 2:0.78781593 3:0.96646076 4:0.84427559 
-24.25146506416637 24.25146506416637 0 1:0.79151988 2:0.74462241 3:0.72202557 4:0.7270965 
-0 24.25146506416637 0 1:1.1982254 2:1.1317642 3:1.2563359 4:0.53977489 
-0 24.25146506416637 0 1:1.0928442 2:0.94619209 3:0.97742897 4:0.42259577 
-0 24.25146506416637 0 1:0.99404937 2:0.85820532 3:0.77686679 4:0.60331571 
-24.25146506416637 24.25146506416637 0 1:0.62686175 2:0.5366537 3:0.23002139 4:0.59423846 
-24.25146506416637 24.25146506416637 0 1:0.85244334 2:0.83100939 3:0.79723638 4:0.60166532 
-0 24.25146506416637 0 1:0.91830659 2:0.89659953 3:1.4647325 4:0.99528813 
-0 24.25146506416637 0 1:0.9298327 2:0.85340607 3:1.0698756 4:0.59753925 
-0 24.25146506416637 0 1:0.93477243 2:0.73502386 3:0.70635664 4:0.59011245 
-24.25146506416637 24.25146506416637 0 1:0.8672626 2:0.44386762 3:0.065497704 4:0.57855958 
-24.25146506416637 24.25146506416637 0 1:0.78658009 2:0.83420897 3:0.56220257 4:1.1867357 
-24.25146506416637 24.25146506416637 0 1:1.0302742 2:1.0341789 3:0.96019316 4:0.96888155 
-24.25146506416637 24.25146506416637 0 1:0.88208181 2:0.9157967 3:0.94295734 4:0.86573094 
-24.25146506416637 24.25146506416637 0 1:1.0467399 2:1.0949697 3:0.98212969 4:0.86160493 
-24.25146506416637 24.25146506416637 0 1:0.89525449 2:0.85660559 3:0.93825668 4:1.1751828 
-0 24.25146506416637 0 1:1.160354 2:1.146162 3:1.254769 4:0.51831955 
-24.25146506416637 24.25146506416637 0 1:0.95782459 2:0.92379546 3:0.96959454 4:0.90038955 
-24.25146506416637 24.25146506416637 0 1:1.0105152 2:1.0469769 3:0.81760597 4:0.94082457 
-0 24.25146506416637 0 1:1.0105152 2:1.0213808 3:1.1513541 4:0.62064499 
-24.25146506416637 24.25146506416637 0 1:0.61204249 2:0.59904432 3:0.39924574 4:1.0555282 
-24.25146506416637 24.25146506416637 0 1:0.84421045 2:0.87740242 3:1.0197351 4:0.92514569 
-24.25146506416637 24.25146506416637 0 1:0.87549549 2:0.85980511 3:0.80037016 4:0.95650351 
-0 24.25146506416637 0 1:1.43204 2:0.61184239 3:0.41648155 4:0.85335284 
-24.25146506416637 24.25146506416637 0 1:1.1076634 2:0.97498775 3:1.0197351 4:1.0282964 
-0 24.25146506416637 0 1:1.0335673 2:1.0149817 3:1.0385377 4:0.6660313 
-24.25146506416637 24.25146506416637 0 1:0.81127882 2:0.81341207 3:0.48229104 4:0.90451556 
-24.25146506416637 24.25146506416637 0 1:1.0022823 2:0.82940966 3:0.72515935 4:0.77908438 
-0 24.25146506416637 0 1:1.0846113 2:0.95419091 3:1.1341182 4:0.68996227 
-24.25146506416637 24.25146506416637 0 1:0.97429037 2:0.84700704 3:0.96019316 4:0.82777148 
-24.25146506416637 24.25146506416637 0 1:0.71248394 2:0.73182434 3:0.31463358 4:1.2329472 
-24.25146506416637 24.25146506416637 0 1:0.90513396 2:0.95739043 3:1.2124628 4:0.91936928 
-24.25146506416637 24.25146506416637 0 1:0.99075615 2:1.1381632 3:1.2892406 4:1.0282964 
-24.25146506416637 24.25146506416637 0 1:0.84585702 2:0.71582675 3:0.4305836 4:0.77330798 
-0 24.25146506416637 0 1:0.94794506 2:0.82621014 3:0.84267628 4:0.50429112 
-0 24.25146506416637 0 1:0.88208181 2:0.79901421 3:1.5383765 4:0.7023403 
-0 24.25146506416637 0 1:1.0500331 2:1.0325791 3:1.2908075 4:0.73204768 
-0 24.25146506416637 24.25146506416637 1:0.79316646 2:0.48226187 3:0.40864712 4:0.15935534 
-0 24.25146506416637 0 1:1.0171015 2:0.8550058 3:0.9617601 4:0.48036015 
-0 24.25146506416637 0 1:1.2344502 2:1.1125671 3:1.1309844 4:0.31861994 
-24.25146506416637 24.25146506416637 0 1:0.95947117 2:1.019781 3:1.1294175 4:1.1652803 
-24.25146506416637 24.25146506416637 0 1:0.76352799 2:0.76062 3:0.52303022 4:0.85500324 
-24.25146506416637 24.25146506416637 0 1:0.99569595 2:1.0853711 3:1.0495061 4:0.96640593 
-0 24.25146506416637 0 1:1.1620007 2:1.0501765 3:1.0980797 4:0.47540891 
-24.25146506416637 24.25146506416637 0 1:0.8326844 2:0.89659953 3:1.2265649 4:0.91606843 
-0 24.25146506416637 0 1:1.250916 2:1.0965695 3:0.72986001 4:0.27405885 
-24.25146506416637 24.25146506416637 0 1:0.83762413 2:0.88860077 3:0.78000057 4:1.3872606 
-24.25146506416637 24.25146506416637 0 1:0.92653954 2:0.94619209 3:0.80350393 4:0.65035242 
-24.25146506416637 24.25146506416637 0 1:1.0105152 2:1.0421777 3:1.2657372 4:0.97878402 
-24.25146506416637 24.25146506416637 0 1:0.63015491 2:0.61024261 3:0.40081266 4:1.1388738 
-24.25146506416637 24.25146506416637 0 1:1.018748 2:1.0677738 3:1.0040661 4:1.2312968 
-0 24.25146506416637 0 1:1.0450934 2:0.93819332 3:1.152921 4:0.42424619 
-24.25146506416637 24.25146506416637 0 1:0.78658009 2:0.82301062 3:1.1294175 4:0.84014958 
-24.25146506416637 24.25146506416637 0 1:1.117543 2:0.66143489 3:0.37104169 4:0.60414094 
-0 24.25146506416637 0 1:0.98087668 2:0.85180628 3:0.77059925 4:0.61651897 
-0 24.25146506416637 0 1:1.1340088 2:1.0869709 3:1.1356851 4:0.77413315 
-0 24.25146506416637 0 1:1.1241293 2:0.95899016 3:0.94452429 4:0.71306801 
-0 24.25146506416637 0 1:1.0368605 2:1.0245804 3:1.2155967 4:0.73534852 
-0 24.25146506416637 0 1:1.0352138 2:0.99418485 3:0.70008904 4:0.47458372 
-24.25146506416637 24.25146506416637 0 1:0.88372838 2:0.84860677 3:0.64994854 4:1.0126175 
-0 24.25146506416637 0 1:0.89196134 2:0.65343612 3:1.0087669 4:0.6066165 
-0 24.25146506416637 0 1:1.0072219 2:0.99258512 3:1.1591885 4:0.7634055 
-24.25146506416637 24.25146506416637 0 1:0.95947117 2:0.83260918 3:0.86461276 4:0.72874689 
-24.25146506416637 24.25146506416637 0 1:0.65485364 2:0.67903227 3:0.38514373 4:0.8426252 
-0 24.25146506416637 0 1:1.148828 2:0.8902005 3:0.92572153 4:0.67263293 
-24.25146506416637 24.25146506416637 0 1:1.0846113 2:1.1429625 3:1.1889595 4:1.0439752 
-0 24.25146506416637 0 1:1.0286275 2:0.88060194 3:1.1090479 4:0.79146248 
-24.25146506416637 24.25146506416637 0 1:0.71413052 2:0.79741448 3:0.61077619 4:1.0456257 
-0 24.25146506416637 0 1:0.94959164 2:0.8758027 3:1.152921 4:0.59423846 
-0 24.25146506416637 0 1:1.0846113 2:1.0645742 3:1.1106149 4:0.66520607 
-24.25146506416637 24.25146506416637 0 1:1.0632057 2:1.059775 3:1.1936601 4:0.96723115 
-0 24.25146506416637 0 1:1.0171015 2:0.9893856 3:0.97116143 4:0.50264066 
-24.25146506416637 24.25146506416637 0 1:0.80963224 2:0.69662964 3:0.3914113 4:1.0431501 
-24.25146506416637 24.25146506416637 0 1:0.73059636 2:0.61504191 3:0.75493032 4:0.57525873 
-0 24.25146506416637 0 1:0.92489296 2:0.73822337 3:0.64211404 4:0.28891256 
-24.25146506416637 24.25146506416637 0 1:0.76517457 2:0.7798171 3:1.0072 4:0.90038955 
-0 24.25146506416637 0 1:0.63674122 2:0.47106355 3:1.0573405 4:0.56123024 
-0 24.25146506416637 0 1:0.93641901 2:0.73502386 3:0.48699173 4:0.31861994 
-0 24.25146506416637 0 1:1.2048117 2:1.1685587 3:1.1482203 4:0.41516894 
-24.25146506416637 24.25146506416637 0 1:0.78164035 2:0.82461035 3:0.70165598 4:0.86655611 
-0 24.25146506416637 0 1:1.0335673 2:1.0757726 3:1.3346804 4:0.87975943 
-24.25146506416637 24.25146506416637 0 1:1.0039288 2:0.82780987 3:0.73142689 4:0.75845426 
-0 24.25146506416637 0 1:1.10931 2:1.0757726 3:1.1685898 4:0.85252768 
-24.25146506416637 24.25146506416637 0 1:0.987463 2:1.0805719 3:1.1732905 4:0.98125964 
-24.25146506416637 24.25146506416637 0 1:0.78493351 2:0.77821738 3:0.67031813 4:0.79641372 
-24.25146506416637 24.25146506416637 0 1:1.0763785 2:0.98778582 3:0.86461276 4:1.0315971 
-24.25146506416637 24.25146506416637 0 1:0.86232287 2:0.90619808 3:0.96489388 4:1.1388738 
-0 1.521931804132044 0 1:1.1405951 2:1.0789721 3:1.3002088 4:0.71141756 
-24.25146506416637 24.25146506416637 0 1:0.66473311 2:0.54945177 3:0.47759035 4:1.1710569 
-24.25146506416637 24.25146506416637 0 1:1.058266 2:1.1221657 3:1.0150344 4:0.88883668 
-24.25146506416637 24.25146506416637 0 1:0.86396945 2:0.49825945 3:0.57630455 4:0.8426252 
-24.25146506416637 24.25146506416637 0 1:0.90842712 2:1.0229806 3:1.0526398 4:1.1545527 
-0 24.25146506416637 0 1:1.0747318 2:1.0629746 3:1.1576216 4:0.72957206 
-24.25146506416637 24.25146506416637 0 1:0.89690107 2:0.84220773 3:0.77059925 4:0.82529587 
-24.25146506416637 0 0 1:1.0549729 2:1.1765574 3:1.4521973 4:1.2048903 
-0 24.25146506416637 0 1:0.62850833 2:0.6310395 3:1.2767054 4:0.745251 
-24.25146506416637 24.25146506416637 0 1:0.80469251 2:0.78301662 3:0.58257216 4:0.8607797 
-0 24.25146506416637 0 1:0.84585702 2:0.81341207 3:1.3895217 4:0.61569381 
-0 24.25146506416637 0 1:0.95782459 2:0.80541325 3:1.5540453 4:0.54720175 
-0 24.25146506416637 0 1:1.1060169 2:1.0725731 3:1.3581839 4:0.50429112 
-0 24.25146506416637 0 1:1.0418001 2:1.0965695 3:1.3221453 4:0.87728381 
-0 24.25146506416637 0 1:1.1636472 2:1.1413628 3:1.0761433 4:0.78156 
-24.25146506416637 24.25146506416637 0 1:0.95288479 2:0.53505391 3:0.24882409 4:0.69161266 
-24.25146506416637 24.25146506416637 0 1:0.80469251 2:0.78141689 3:0.80507088 4:0.6784094 
-24.25146506416637 24.25146506416637 0 1:0.74376899 2:0.68063205 3:0.59510726 4:0.7328729 
-24.25146506416637 24.25146506416637 0 1:0.98416984 2:0.88540125 3:0.8332749 4:0.72627127 
-0 24.25146506416637 0 1:1.0467399 2:1.0405779 3:1.1435195 4:0.53894973 
-24.25146506416637 0 0 1:1.1274225 2:1.3429325 3:1.4600319 4:1.1487763 
-0 24.25146506416637 0 1:1.0039288 2:0.89819932 3:0.99466479 4:0.44405112 
-24.25146506416637 24.25146506416637 0 1:0.85244334 2:0.95419091 3:0.9554925 4:1.3839598 
-0 24.25146506416637 0 1:0.75858825 2:0.87100339 3:1.5117393 4:0.94907665 
-24.25146506416637 24.25146506416637 0 1:0.67625916 2:0.83100939 3:0.46192145 4:1.3979882 
-0 24.25146506416637 0 1:1.1241293 2:0.97978705 3:1.3127439 4:0.51997 
-0 24.25146506416637 0 1:1.0928442 2:1.0805719 3:1.1638892 4:0.69078743 
-24.25146506416637 24.25146506416637 0 1:0.7503553 2:0.79901421 3:0.61704379 4:1.1198941 
-24.25146506416637 24.25146506416637 0 1:0.96770406 2:1.0053833 3:0.98369658 4:0.82859671 
-24.25146506416637 24.25146506416637 0 1:0.90019423 2:0.83100939 3:0.6468147 4:0.77908438 
-0 24.25146506416637 0 1:1.0319207 2:1.1189661 3:0.96646076 4:0.61816937 
-24.25146506416637 24.25146506416637 0 1:0.84915018 2:0.69502985 3:0.57473767 4:0.59011245 
-0 24.25146506416637 0 1:1.1537677 2:1.1237653 3:1.1607554 4:0.40196565 
-0 24.25146506416637 0 1:1.0055754 2:0.99258512 3:1.2281318 4:0.6858362 
-0 24.25146506416637 0 1:1.1899925 2:1.1669589 3:1.1623223 4:0.52987242 
-0 24.25146506416637 0 1:1.1932857 2:1.1221657 3:1.1826919 4:0.46220562 
-24.25146506416637 24.25146506416637 0 1:0.74870872 2:0.81981111 3:0.53869915 4:0.95567828 
-24.25146506416637 24.25146506416637 0 1:0.64332753 2:0.70142889 3:0.32246804 4:1.0216947 
-0 24.25146506416637 0 1:1.0335673 2:1.0085827 3:1.2469344 4:0.63219786 
-24.25146506416637 24.25146506416637 0 1:1.0681455 2:1.0645742 3:0.88654923 4:0.97630841 
-0 24.25146506416637 0 1:1.0105152 2:0.87420291 3:1.0965128 4:0.73369813 
-0 24.25146506416637 0 1:1.0335673 2:0.98298657 3:0.96332699 4:0.65282804 
-24.25146506416637 24.25146506416637 0 1:0.87549549 2:0.85020655 3:0.84894383 4:0.76423073 
-0 24.25146506416637 0 1:0.81127882 2:0.85180628 3:1.0667418 4:0.7023403 
-24.25146506416637 24.25146506416637 0 1:0.86067629 2:0.77341807 3:0.57943839 4:0.69573867 
-0 24.25146506416637 0 1:1.0615592 2:1.1605599 3:1.4365284 4:0.61239296 
-0 24.25146506416637 0 1:0.72894979 2:0.61344212 3:1.152921 4:0.60744172 
-24.25146506416637 24.25146506416637 0 1:0.79151988 2:0.82461035 3:0.49482617 4:1.1619796 
-24.25146506416637 24.25146506416637 0 1:0.88372838 2:1.1253651 3:1.5274081 4:1.0538777 
-0 24.25146506416637 0 1:1.1373019 2:0.97178823 3:1.2218642 4:0.64127517 
-24.25146506416637 24.25146506416637 0 1:1.1883459 2:1.0677738 3:0.95862627 4:1.0860606 
-0 24.25146506416637 0 1:0.95947117 2:0.81661159 3:1.0275695 4:0.50511628 
-0 24.25146506416637 0 1:0.96276432 2:0.97178823 3:1.4490635 4:0.53564888 
-0 24.25146506416637 0 1:0.84585702 2:0.78621614 3:0.96489388 4:0.27488407 
-0 24.25146506416637 0 1:0.92159975 2:0.79101545 3:0.80193704 4:0.45725441 
-24.25146506416637 24.25146506416637 0 1:0.91501343 2:0.90299857 3:0.88498235 4:1.2263455 
-24.25146506416637 24.25146506416637 0 1:1.0220412 2:0.94779187 3:0.77216613 4:0.71884441 
-24.25146506416637 24.25146506416637 0 1:0.86561602 2:0.86780387 3:0.90065128 4:0.77330798 
-24.25146506416637 24.25146506416637 0 1:0.82115829 2:0.91259712 3:0.69382149 4:0.97465801 
-0 24.25146506416637 0 1:1.3085463 2:1.0565755 3:0.88341546 4:0.29303858 
-0 24.25146506416637 0 1:1.1027237 2:1.0373784 3:1.0103338 4:0.81126738 
-0 24.25146506416637 0 1:1.0072219 2:0.95899016 3:1.0228689 4:0.68088496 
-0 24.25146506416637 0 1:0.90348738 2:0.9493916 3:1.4051906 4:0.79558849 
-0 24.25146506416637 0 1:1.1504745 2:1.1381632 3:1.2782723 4:0.6965639 
-0 24.25146506416637 0 1:0.93477243 2:1.0357786 3:1.1356851 4:0.60084009 
-0 24.25146506416637 0 1:1.0154549 2:1.1013688 3:1.1278507 4:0.82612109 
-0 24.25146506416637 0 1:1.2673818 2:1.2677437 3:1.2046283 4:0.43744949 
-24.25146506416637 24.25146506416637 0 1:0.93641901 2:0.96218967 3:0.73926139 4:1.1966382 
-0 24.25146506416637 0 1:0.90019423 2:0.74782193 3:1.2014946 4:0.46633166 
-0 24.25146506416637 0 1:1.1669403 2:1.0869709 3:1.1842588 4:0.35245335 
-0 24.25146506416637 0 1:1.0319207 2:1.0901705 3:1.4161588 4:0.970532 
-24.25146506416637 24.25146506416637 0 1:0.80304593 2:0.79581469 3:0.67501879 4:0.95732868 
-2.548731333188453 24.25146506416637 0 1:0.92818612 2:1.0437775 3:1.5289751 4:1.0844103 
-0 24.25146506416637 0 1:1.2163378 2:1.1141669 3:1.1278507 4:0.72297043 
-24.25146506416637 24.25146506416637 0 1:0.79481304 2:0.84700704 3:0.79723638 4:0.84510082 
-0 24.25146506416637 0 1:1.1340088 2:0.9493916 3:0.93668979 4:0.26168078 
-24.25146506416637 24.25146506416637 0 1:0.57417113 2:0.48546138 3:0.093701765 4:0.74029976 
-0 24.25146506416637 0 1:0.96770406 2:0.81341207 3:0.68442017 4:0.330998 
-0 24.25146506416637 0 1:1.1784664 2:0.91259712 3:0.89595062 4:0.45477879 
-0 24.25146506416637 0 1:0.87220234 2:0.73342407 3:0.628012 4:0.2633312 
-24.25146506416637 24.25146506416637 0 1:1.0138084 2:0.89340001 3:0.70635664 4:0.60331571 
-24.25146506416637 24.25146506416637 0 1:0.70919079 2:0.58784598 3:0.7502296 4:0.84345037 
-24.25146506416637 24.25146506416637 0 1:0.95947117 2:0.96698898 3:0.85051072 4:0.88140982 
-24.25146506416637 24.25146506416637 0 1:0.63015491 2:0.78781593 3:0.20651801 4:1.577883 
-24.25146506416637 24.25146506416637 0 1:1.0500331 2:1.1637594 3:1.0119007 4:1.0134426 
-24.25146506416637 24.25146506416637 0 1:0.7701143 2:0.87260318 3:0.62331134 4:1.1867357 
-24.25146506416637 24.25146506416637 0 1:1.2097515 2:1.5604997 3:1.1591885 4:1.2321219 
-0 24.25146506416637 0 1:1.1455349 2:0.85660559 3:0.82857424 4:0.68253541 
-0 24.25146506416637 0 1:1.0434468 2:0.93659353 3:1.0197351 4:0.71636879 
-24.25146506416637 24.25146506416637 0 1:0.70260447 2:0.78621614 3:0.34597141 4:1.5333219 
-24.25146506416637 24.25146506416637 0 1:1.0203947 2:1.0277798 3:1.0980797 4:1.0225199 
-0 24.25146506416637 0 1:1.0599126 2:1.1685587 3:1.3863878 4:1.0266459 
-24.25146506416637 24.25146506416637 0 1:0.82445151 2:0.92379546 3:0.60450864 4:1.0439752 
-24.25146506416637 24.25146506416637 0 1:0.92324632 2:0.91099739 3:0.90065128 4:0.89956433 
-24.25146506416637 24.25146506416637 0 1:0.8903147 2:0.9845863 3:1.0181682 4:1.2791587 
-0 24.25146506416637 0 1:1.0055754 2:0.97178823 3:1.1278507 4:0.4894374 
-0 5.510165604499485 0 1:1.3497109 2:1.0565755 3:0.91788709 4:0.62229544 
-24.25146506416637 24.25146506416637 0 1:0.81786513 2:0.78941566 3:0.74239516 4:0.77000713 
-0 24.25146506416637 0 1:1.1060169 2:1.1989541 3:1.2626034 4:0.64210033 
-0 24.25146506416637 0 1:1.1817596 2:1.0165815 3:1.1137487 4:0.67015731 
-0 24.25146506416637 0 1:1.1422416 2:1.066174 3:1.3331136 4:0.28891256 
-24.25146506416637 24.25146506416637 0 1:1.1126032 2:1.1925551 3:1.2845399 4:1.0456257 
-24.25146506416637 24.25146506416637 0 1:1.2690284 2:1.0421777 3:0.82857424 4:0.93257254 
-0 24.25146506416637 0 1:0.93312585 2:0.88220173 3:1.0557736 4:0.14615206 
-0 24.25146506416637 0 1:0.94300532 2:0.86780387 3:1.2939413 4:0.60414094 
-24.25146506416637 24.25146506416637 0 1:0.91501343 2:0.92219573 3:0.55906874 4:1.2552278 
-0 24.25146506416637 0 1:0.7503553 2:0.77501786 3:1.0557736 4:0.5381245 
-24.25146506416637 24.25146506416637 0 1:0.88372838 2:0.93819332 3:0.70322287 4:1.1405243 
-24.25146506416637 24.25146506416637 0 1:0.8672626 2:0.9301945 3:0.75336343 4:0.97465801 
-0 24.25146506416637 0 1:1.0599126 2:0.91739643 3:1.2735716 4:0.68666142 
-0 24.25146506416637 0 1:0.90348738 2:0.77181834 3:1.3754196 4:0.76258028 
-0 24.25146506416637 0 1:1.0846113 2:0.9893856 3:1.0495061 4:0.33429882 
-0 24.25146506416637 0 1:0.96935064 2:1.0789721 3:1.5728481 4:0.68831182 
-24.25146506416637 24.25146506416637 0 1:1.0879045 2:1.1669589 3:1.2155967 4:1.0860606 
-24.25146506416637 24.25146506416637 0 1:1.1636472 2:1.1269649 3:0.9742952 4:0.97713363 
-0 24.25146506416637 0 1:0.81951171 2:0.74782193 3:1.1450865 4:0.39866483 
-0 24.25146506416637 0 1:0.98252326 2:0.97178823 3:1.0495061 4:0.78073478 
-24.25146506416637 24.25146506416637 0 1:0.85738313 2:0.69023061 3:0.62174445 4:0.63384831 
-24.25146506416637 24.25146506416637 0 1:0.72894979 2:0.8902005 3:0.54496676 4:1.3790085 
-24.25146506416637 24.25146506416637 0 1:1.1899925 2:1.2085526 3:1.107481 4:0.95237744 
-0 24.25146506416637 0 1:1.10931 2:1.0213808 3:1.0338371 4:0.56370586 
-0 24.25146506416637 0 1:0.88866812 2:0.89180028 3:1.1059141 4:0.57525873 
-24.25146506416637 24.25146506416637 0 1:1.1751733 2:1.1621597 3:0.88028169 4:1.0208695 
-24.25146506416637 24.25146506416637 0 1:0.88537496 2:0.86620414 3:1.051073 4:0.78898686 
-24.25146506416637 24.25146506416637 0 1:0.64003438 2:0.51265728 3:0.38357684 4:0.67510855 
-0 24.25146506416637 0 1:0.84256387 2:0.82301062 3:1.2829729 4:0.51254314 
-24.25146506416637 24.25146506416637 0 1:1.0895511 2:1.0325791 3:0.93355602 4:0.88966191 
-24.25146506416637 24.25146506416637 0 1:0.75364846 2:0.6310395 3:0.52459711 4:0.62972224 
-24.25146506416637 24.25146506416637 0 1:0.94959164 2:0.95419091 3:0.96802765 4:0.80219012 
-24.25146506416637 24.25146506416637 0 1:0.76023483 2:0.69822937 3:0.63898027 4:0.65447843 
-0 24.25146506416637 0 1:1.1438882 2:0.82141083 3:0.84267628 4:0.45642918 
-0 24.25146506416637 8.793013653647382 1:0.67131943 2:0.48386163 3:0.49952686 4:0.22867258 
-24.25146506416637 24.25146506416637 0 1:0.75529504 2:0.89340001 3:0.90065128 4:1.0811095 
-24.25146506416637 24.25146506416637 0 1:0.79481304 2:0.57824743 3:0.3271687 4:1.1182437 
-24.25146506416637 24.25146506416637 0 1:0.66802627 2:0.80381352 3:0.39924574 4:1.3468255 
-24.25146506416637 24.25146506416637 0 1:1.1109567 2:1.0213808 3:0.90221816 4:0.813743 
-0 24.25146506416637 0 1:0.91830659 2:0.8150118 3:1.4349616 4:0.50264066 
-0 24.25146506416637 0 1:1.1027237 2:1.0101825 3:1.1623223 4:0.66850692 
-0 24.25146506416637 0 1:1.3842891 2:0.72382551 3:0.60294175 4:0.76258028 
-0 24.25146506416637 0 1:0.97758353 2:0.89819932 3:1.2986419 4:0.60331571 
-24.25146506416637 24.25146506416637 0 1:0.81127882 2:0.77181834 3:0.51989645 4:0.745251 
-24.25146506416637 24.25146506416637 0 1:0.95288479 2:0.84860677 3:0.74709582 4:0.80053973 
-0 24.25146506416637 0 1:1.0664989 2:1.1253651 3:1.2939413 4:0.67593378 
-24.25146506416637 24.25146506416637 0 1:1.0368605 2:0.99098533 3:0.76433164 4:0.64127517 
-24.25146506416637 24.25146506416637 0 1:0.78658009 2:0.83420897 3:0.77373302 4:0.84097475 
-0 24.25146506416637 0 1:1.0516797 2:1.0341789 3:0.9617601 4:0.60249048 
-24.25146506416637 24.25146506416637 0 1:0.68119889 2:0.68383157 3:0.30993289 4:1.0051906 
-11.05644797329643 24.25146506416637 0 1:0.88866812 2:0.85340607 3:0.85051072 4:0.61074257 
-0 24.25146506416637 0 1:1.0335673 2:0.97178823 3:0.90691882 4:0.63219786 
-24.25146506416637 24.25146506416637 0 1:0.88208181 2:0.78461641 3:0.7690323 4:0.67923456 
-0 -24.25146506416637 0 1:1.0747318 2:0.92699498 3:1.2610365 4:0.60826695 
-24.25146506416637 -0 0 1:0.64003438 2:0.61504191 3:0.4305836 4:0.99116212 
-24.25146506416637 -24.25146506416637 0 1:1.1307156 2:1.0757726 3:0.95705938 4:0.55875462 
-24.25146506416637 -0 0 1:0.65485364 2:0.56384957 3:0.28799641 4:0.95485306 
-24.25146506416637 -24.25146506416637 0 1:0.70754421 2:0.73342407 3:0.5324316 4:1.1108168 
-0 -24.25146506416637 0 1:1.2706749 2:1.2405478 3:1.4177257 4:0.62064499 
-24.25146506416637 -24.25146506416637 0 1:0.82774466 2:0.70302868 3:0.48385793 4:0.86738133 
-0 -24.25146506416637 0 1:1.1537677 2:1.0373784 3:0.94452429 4:0.49851465 
-0 -24.25146506416637 0 1:1.0714387 2:0.99578464 3:1.1356851 4:0.38051033 
-24.25146506416637 -24.25146506416637 0 1:1.0335673 2:0.87740242 3:0.64524782 4:0.94825143 
-24.25146506416637 -0 0 1:0.55276555 2:0.66303468 3:0.11720515 4:1.3781834 
-24.25146506416637 -24.25146506416637 0 1:1.3892288 2:1.3573303 3:1.2453675 4:0.60331571 
-0 -24.25146506416637 0 1:0.93806559 2:0.89819932 3:0.99153101 4:0.65695405 
-0 -24.25146506416637 0 1:0.77670062 2:0.68383157 3:0.66405052 4:0.63302308 
-24.25146506416637 -24.25146506416637 0 1:0.80469251 2:0.76701903 3:0.52929783 4:1.0654305 
-24.25146506416637 -0 0 1:0.59063697 2:0.6310395 3:0.37574238 4:0.90369034 
-24.25146506416637 -24.25146506416637 0 1:1.0319207 2:1.1813568 3:1.5070386 4:0.93174732 
-24.25146506416637 -24.25146506416637 0 1:0.96111774 2:0.91099739 3:0.5512343 4:1.1504267 
-24.25146506416637 -24.25146506416637 0 1:0.85408992 2:0.83580869 3:0.85521138 4:0.88801146 
-24.25146506416637 -0 0 1:0.70754421 2:0.69502985 3:0.50736129 4:0.95402789 
-24.25146506416637 -24.25146506416637 0 1:0.73059636 2:0.66783392 3:0.64838165 4:1.0852355 
-0 -24.25146506416637 0 1:0.88866812 2:0.79101545 3:0.4525201 4:0.49273822 
-24.25146506416637 -0 0 1:0.53465319 2:0.47586283 3:0.043561213 4:0.98621088 
-24.25146506416637 -24.25146506416637 0 1:0.93147928 2:0.9349938 3:0.67658567 4:1.1264957 
-24.25146506416637 -24.25146506416637 0 1:0.7898733 2:0.70462841 3:0.54183292 4:0.82199508 
-0 -24.25146506416637 0 1:0.86232287 2:0.83420897 3:0.69538838 4:0.3796851 
-0 -24.25146506416637 0 1:0.99569595 2:1.0005839 3:1.0651749 4:0.41599414 
-24.25146506416637 -0 0 1:0.56264508 2:0.53025466 3:0.092134871 4:1.0241703 
-24.25146506416637 -24.25146506416637 0 1:0.91336685 2:0.94299257 3:0.81603909 4:0.69408828 
-24.25146506416637 -24.25146506416637 0 1:1.8601512 2:1.7252749 3:2.1463306 4:1.3847849 
-24.25146506416637 -24.25146506416637 0 1:0.90184081 2:0.92059594 3:0.97586209 4:0.80301535 
-24.25146506416637 -24.25146506416637 0 1:1.0039288 2:1.1269649 3:1.2046283 4:1.1330974 
-0 -24.25146506416637 0 1:0.8475036 2:0.62464046 3:0.39767885 4:0.71636879 
-24.25146506416637 -24.25146506416637 0 1:1.1751733 2:1.1477618 3:1.0260026 4:0.55710423 
-24.25146506416637 -0 0 1:0.64497411 2:0.73022455 3:0.35537276 4:1.16363 
-0 -24.25146506416637 0 1:1.2031652 2:1.1125671 3:1.3127439 4:0.79476327 
-0 -24.25146506416637 0 1:1.2262173 2:0.96698898 3:0.82230669 4:0.62889707 
-0 -24.25146506416637 0 1:0.76188141 2:0.68383157 3:0.68285328 4:0.50016505 
-0 -24.25146506416637 0 1:0.68943185 2:0.6710335 3:0.72672623 4:0.50676668 
-24.25146506416637 -0 0 1:0.49184206 2:0.39267534 3:0.0043889051 4:1.0934875 
-24.25146506416637 -0 0 1:0.6383878 2:0.45986521 3:0.20025043 4:0.92101967 
-0 -24.25146506416637 0 1:0.79810619 2:0.82141083 3:0.88654923 4:0.66273046 
-24.25146506416637 -24.25146506416637 0 1:1.0730852 2:1.0293796 3:0.97742897 4:0.72049481 
-24.25146506416637 -24.25146506416637 0 1:0.97593695 2:1.0117823 3:0.98526347 4:1.0761583 
-0 -24.25146506416637 0 1:0.72236347 2:0.65823537 3:0.75963098 4:0.67510855 
-24.25146506416637 -24.25146506416637 0 1:0.78493351 2:0.78141689 3:0.83797556 4:1.0414996 
-0 -24.25146506416637 0 1:1.0434468 2:0.97978705 3:0.99623168 4:0.66520607 
-24.25146506416637 -0 0 1:0.50830787 2:0.35108158 3:0.031026073 4:1.0406744 
-0 -24.25146506416637 0 1:1.168587 2:1.0357786 3:1.1889595 4:0.43167305 
-0 -24.25146506416637 0 1:1.1537677 2:1.0869709 3:1.0886784 4:0.56535625 
-24.25146506416637 -24.25146506416637 0 1:0.87384892 2:0.8902005 3:0.85521138 4:0.78486085 
-24.25146506416637 -0 0 1:0.67131943 2:0.52065611 3:0.33186939 4:0.93257254 
-24.25146506416637 -0 0 1:0.64003438 2:0.5366537 3:0.35693967 4:0.93174732 
-0 -24.25146506416637 0 1:1.1158963 2:1.1189661 3:1.2453675 4:0.51336837 
-24.25146506416637 -0 0 1:0.60051644 2:0.57664764 3:0.38200995 4:1.0101418 
-24.25146506416637 -24.25146506416637 0 1:0.88702154 2:0.8949998 3:0.86931342 4:0.95072705 
-24.25146506416637 -0 0 1:0.48525575 2:0.41187245 3:-0.023815155 4:1.3451751 
-0 -24.25146506416637 0 1:0.88866812 2:0.88220173 3:0.95235872 4:0.60331571 
-24.25146506416637 -24.25146506416637 0 1:1.2015185 2:1.3413327 3:1.7890792 4:1.0315971 
-24.25146506416637 -0 0 1:0.70095789 2:0.58464646 3:0.36634102 4:0.8805846 
-0 -24.25146506416637 0 1:0.79151988 2:0.64223778 3:0.60607553 4:0.48613659 
-24.25146506416637 -0 0 1:0.60051644 2:0.58144695 3:0.14384231 4:0.86325532 
-0 -24.25146506416637 0 1:1.0302742 2:1.066174 3:1.3879547 4:0.80136496 
-0 -24.25146506416637 0 1:0.94135875 2:0.93659353 3:1.0040661 4:0.73864937 
-24.25146506416637 -0 0 1:0.46220362 2:0.28069216 3:-0.020681372 4:1.0225199 
-0 -24.25146506416637 0 1:0.95782459 2:0.96058995 3:1.3174446 4:0.47128287 
-24.25146506416637 -0 0 1:0.55605876 2:0.51905632 3:0.23158829 4:0.80219012 
-0 -24.25146506416637 0 1:0.88208181 2:0.73502386 3:0.68285328 4:0.4102177 
-24.25146506416637 -24.25146506416637 0 1:0.77999377 2:0.85180628 3:0.86147898 4:0.71801919 
-0 -24.25146506416637 0 1:0.78164035 2:0.86140484 3:1.3393811 4:0.745251 
-0 -24.25146506416637 0 1:0.89196134 2:0.88540125 3:1.1309844 4:0.98208487 
-24.25146506416637 -24.25146506416637 0 1:0.77670062 2:0.92059594 3:0.5136289 4:1.300614 
-24.25146506416637 -24.25146506416637 0 1:0.76188141 2:0.83100939 3:0.73926139 4:1.0819347 
-0 -24.25146506416637 0 1:0.74870872 2:0.74302262 3:0.74082828 4:0.54390091 
-0 -24.25146506416637 0 1:0.69931132 2:0.63423902 3:0.57317078 4:0.745251 
-24.25146506416637 -24.25146506416637 0 1:0.95782459 2:0.89659953 3:0.86931342 4:0.92349529 
-0 -24.25146506416637 0 1:1.0352138 2:0.90619808 3:0.81603909 4:0.46055523 
-24.25146506416637 -0 0 1:0.68449205 2:0.72702503 3:0.47759035 4:0.80053973 
-0 -24.25146506416637 0 1:1.0648524 2:1.0117823 3:1.1356851 4:0.57030749 
-0 -24.25146506416637 0 1:0.95453137 2:0.85180628 3:0.87244719 4:0.59176284 
-0 -24.25146506416637 0 1:1.0368605 2:0.96058995 3:0.94609118 4:0.49686423 
-0 -24.25146506416637 0 1:1.148828 2:1.0053833 3:1.2767054 4:0.77413315 
-0 -24.25146506416637 0 1:0.8326844 2:0.77181834 3:0.64994854 4:0.67593378 
-0 -24.25146506416637 0 1:0.86067629 2:0.82461035 3:0.78313434 4:0.51666915 
-0 -24.25146506416637 0 1:0.88208181 2:0.8949998 3:1.254769 4:0.50676668 
-24.25146506416637 -24.25146506416637 0 1:1.0203947 2:1.0741729 3:1.3801203 4:0.90699118 
-24.25146506416637 -0 0 1:0.59393013 2:0.51745659 3:0.11250447 4:1.1925122 
-24.25146506416637 -0 0 1:0.53959292 2:0.4886609 3:0.038860533 4:1.0266459 
-24.25146506416637 -24.25146506416637 0 1:0.99240279 2:1.0325791 3:1.2359662 4:0.90451556 
-0 -24.25146506416637 0 1:0.90513396 2:0.87260318 3:1.0181682 4:0.7634055 
-24.25146506416637 -24.25146506416637 0 1:0.77999377 2:0.84540725 3:0.77216613 4:0.98208487 
-24.25146506416637 -24.25146506416637 0 1:0.86232287 2:0.87900221 3:0.79410261 4:0.95567828 
-24.25146506416637 -0 0 1:0.49678183 2:0.37507796 3:-0.014413802 4:1.010967 
-0 -24.25146506416637 0 1:0.72071683 2:0.52545536 3:0.51206201 4:0.64210033 
-0 -24.25146506416637 0 1:0.78822666 2:0.65183634 3:1.179558 4:1.0860606 
-0 -24.25146506416637 0 1:0.6581468 2:0.60064405 3:0.63741338 4:0.90038955 
-24.25146506416637 -24.25146506416637 0 1:0.72730321 2:0.73182434 3:0.53556538 4:0.86573094 
-24.25146506416637 -0 0 1:0.65979338 2:0.56224984 3:0.35380587 4:0.83354795 
-24.25146506416637 -24.25146506416637 0 1:0.86396945 2:0.97498775 3:0.86931342 4:0.69326305 
-24.25146506416637 -0 0 1:0.68449205 2:0.70782793 3:0.46505523 4:0.90781641 
-0 -24.25146506416637 0 1:1.1718801 2:0.82301062 3:0.83170801 4:0.83849919 
-0 -24.25146506416637 0 1:0.86232287 2:0.61024261 3:2.0350814 4:0.68666142 
-0 -24.25146506416637 0 1:0.95782459 2:0.96218967 3:1.0777102 4:0.59423846 
-24.25146506416637 -24.25146506416637 0 1:1.1883459 2:1.2469469 3:1.3221453 4:0.76258028 
-24.25146506416637 -24.25146506416637 0 1:0.93806559 2:0.95579064 3:0.98683035 4:0.81869423 
-0 -24.25146506416637 0 1:0.69601816 2:0.5910455 3:0.58100528 4:0.76175511 
-24.25146506416637 -24.25146506416637 0 1:1.0072219 2:0.92859477 3:0.90378505 4:0.8624301 
-0 -24.25146506416637 0 1:0.94629848 2:0.90779787 3:1.4020568 4:0.74855179 
-24.25146506416637 -0 0 1:0.5264203 2:0.56224984 3:0.032592967 4:1.7165173 
-24.25146506416637 -0 0 1:0.56593823 2:0.52545536 3:0.21748625 4:1.1735325 
-0 -24.25146506416637 0 1:1.0961374 2:0.93179429 3:0.93512291 4:0.51749438 
-0 -24.25146506416637 0 1:0.69107842 2:0.61184239 3:0.91945398 4:0.67758417 
-24.25146506416637 -0 0 1:0.5840506 2:0.55905032 3:0.23628896 4:0.95237744 
-0 -24.25146506416637 0 1:0.89360791 2:1.0309794 3:1.3456486 4:0.59258801 
-24.25146506416637 -0 0 1:0.57746428 2:0.61024261 3:0.21748625 4:1.1949878 
-0 -24.25146506416637 0 1:1.2113981 2:0.69982916 3:0.51676267 4:0.76505589 
-0 -24.25146506416637 0 1:1.0483866 2:1.053376 3:1.3895217 4:0.78403562 
-0 -24.25146506416637 0 1:1.0088686 2:1.066174 3:1.2767054 4:0.80136496 
-24.25146506416637 -0 0 1:0.653207 2:0.68863082 3:0.14070854 4:1.4095411 
-24.25146506416637 -24.25146506416637 0 1:0.81457198 2:0.86780387 3:0.77686679 4:1.0885363 
-24.25146506416637 -0 0 1:0.65979338 2:0.65663564 3:0.26292613 4:1.0629549 
-24.25146506416637 -0 0 1:0.55441219 2:0.50945777 3:0.1281734 4:0.98786128 
-0 -24.25146506416637 0 1:1.0533262 2:0.97978705 3:1.1450865 4:0.59836447 
-24.25146506416637 -0 0 1:0.5840506 2:0.47906235 3:0.19084908 4:1.2172683 
-24.25146506416637 -24.25146506416637 0 1:0.76188141 2:0.70302868 3:0.56220257 4:0.97630841 
-24.25146506416637 -0 0 1:0.53794634 2:0.56224984 3:0.074899055 4:1.0332476 
-24.25146506416637 -24.25146506416637 0 1:0.69931132 2:0.62144095 3:0.53399849 4:1.0043654 
-0 -24.25146506416637 0 1:0.94135875 2:0.72382551 3:2.1290948 4:0.93422294 
-0 -24.25146506416637 0 1:0.79810619 2:0.83740848 3:1.0698756 4:0.59176284 
-0 -24.25146506416637 0 1:1.1109567 2:0.93819332 3:1.0401046 4:0.78238523 
-24.25146506416637 -24.25146506416637 0 1:0.74047583 2:0.71742648 3:0.60607553 4:0.76175511 
-0 -24.25146506416637 0 1:0.84256387 2:0.73342407 3:0.72515935 4:0.51336837 
-24.25146506416637 -0 0 1:0.6038096 2:0.56864887 3:0.11250447 4:1.1405243 
-24.25146506416637 -0 0 1:0.60710275 2:0.78781593 3:0.23942274 4:1.1124673 
-24.25146506416637 -0 0 1:0.68284547 2:0.5158568 3:0.27389437 4:1.2156179 
-24.25146506416637 -0 0 1:0.65979338 2:0.59584481 3:0.3506721 4:0.85582846 
-24.25146506416637 -0 0 1:0.67955232 2:0.6454373 3:0.38671061 4:1.1694064 
-0 -24.25146506416637 0 1:0.93641901 2:0.81181228 3:1.1294175 4:0.82116985 
-0 -24.25146506416637 0 1:0.93806559 2:0.85980511 3:1.0573405 4:0.39949003 
-24.25146506416637 -24.25146506416637 0 1:0.7503553 2:0.69662964 3:0.39611197 4:1.0761583 
-24.25146506416637 -0 0 1:0.71248394 2:0.60864288 3:0.3694748 4:0.80053973 
-0 -24.25146506416637 0 1:0.83433098 2:0.63743854 3:0.64054716 4:0.41764456 
-0 -24.25146506416637 0 1:1.0253344 2:0.94299257 3:1.7138684 4:0.88801146 
-0 -24.25146506416637 0 1:0.91501343 2:0.86940366 3:0.89438373 4:0.66768169 
-24.25146506416637 -24.25146506416637 0 1:0.79975277 2:0.79101545 3:0.71732485 4:0.78733647 
-24.25146506416637 -24.25146506416637 0 1:0.98581642 2:0.94779187 3:0.8144722 4:1.0893615 
-24.25146506416637 -24.25146506416637 0 1:1.0154549 2:1.0245804 3:1.0009323 4:0.65860444 
-24.25146506416637 -0 0 1:0.67625916 2:0.78621614 3:0.41648155 4:1.1974634 
-0 -24.25146506416637 0 1:0.78822666 2:0.79421496 3:0.80820465 4:0.69326305 
-24.25146506416637 -0 0 1:0.56429166 2:0.51425707 3:0.1657788 4:0.89378792 
-0 -24.25146506416637 0 1:0.69107842 2:0.64063805 3:0.73142689 4:0.63302308 
-24.25146506416637 -0 0 1:0.76352799 2:0.58624619 3:0.38357684 4:0.8607797 
-24.25146506416637 -24.25146506416637 0 1:1.3003135 2:1.3797269 3:1.4678663 4:0.52822202 
-0 -24.25146506416637 0 1:0.81457198 2:0.55745053 3:0.37104169 4:0.55380338 
-24.25146506416637 -24.25146506416637 0 1:0.88208181 2:0.90459836 3:0.79096884 4:1.0456257 
-24.25146506416637 -0 0 1:0.6383878 2:0.63423902 3:0.59980798 4:0.86903173 
-24.25146506416637 -0 0 1:0.70754421 2:0.68383157 3:0.48855862 4:0.94990188 
-0 -24.25146506416637 0 1:0.89360791 2:0.73182434 3:0.77373302 4:0.37308347 
-24.25146506416637 -24.25146506416637 0 1:1.0171015 2:1.1349638 3:1.0134676 4:0.85995448 
-24.25146506416637 -24.25146506416637 0 1:0.93971217 2:1.0453771 3:0.77843368 4:0.61156774 
-24.25146506416637 -0 0 1:0.61039591 2:0.64703709 3:0.32403493 4:0.98208487 
-24.25146506416637 -0 0 1:0.71413052 2:0.60704309 3:0.38044304 4:0.91359282 
-24.25146506416637 -0 0 1:0.52477372 2:0.4486669 3:0.11093758 4:0.74195015 
-24.25146506416637 -24.25146506416637 0 1:0.71083736 2:0.61824143 3:0.55436808 4:0.9886865 
-24.25146506416637 -0 0 1:0.67955232 2:0.58304667 3:0.308366 4:0.8789342 
-24.25146506416637 -0 0 1:0.70425105 2:0.64223778 3:0.31933424 4:0.86985695 
-0 -24.25146506416637 0 1:0.67955232 2:0.61664164 3:0.72672623 4:0.54885215 
-24.25146506416637 -24.25146506416637 0 1:0.79645962 2:0.74462241 3:0.6468147 4:0.82859671 
-24.25146506416637 -0 0 1:0.67955232 2:0.57504791 3:0.36477414 4:0.81704384 
-0 -15.28754451471552 0 1:0.70095789 2:0.68383157 3:0.59354037 4:0.68831182 
-24.25146506416637 -0 0 1:0.52971345 2:0.57824743 3:0.032592967 4:1.5019641 
-0 -24.25146506416637 0 1:1.0006356 2:0.84380752 3:1.1544878 4:0.89213747 
-24.25146506416637 -24.25146506416637 0 1:1.0994306 2:1.133364 3:0.97899586 4:1.0348979 
-0 -24.25146506416637 0 1:0.79151988 2:0.71262723 3:0.74239516 4:0.59011245 
-0 -24.25146506416637 0 1:0.75529504 2:0.83260918 3:1.0056331 4:0.88223505 
-24.25146506416637 -0 0 1:0.51489419 2:0.47266331 3:0.093701765 4:0.73534852 
-24.25146506416637 -24.25146506416637 0 1:0.96770406 2:0.97178823 3:1.0620412 4:1.0249956 
-24.25146506416637 -0 0 1:0.47866943 2:0.34148303 3:-0.031649616 4:0.8426252 
-24.25146506416637 -0 0 1:0.63344806 2:0.63423902 3:0.41648155 4:1.0208695 
-0 -24.25146506416637 0 1:0.82280487 2:0.67583275 3:0.55593497 4:0.65695405 
-24.25146506416637 -24.25146506416637 0 1:0.82939124 2:0.84860677 3:0.86461276 4:0.84014958 
-24.25146506416637 -0 0 1:0.55276555 2:0.57344812 3:0.02789229 4:1.3195938 
-0 -24.25146506416637 0 1:0.81951171 2:0.73822337 3:0.79880327 4:0.90616596 
-24.25146506416637 -0 0 1:0.52312714 2:0.51105756 3:0.062363919 4:1.0819347 
-0 -24.25146506416637 0 1:1.0500331 2:0.92379546 3:0.8975175 4:0.74029976 
-0 -24.25146506416637 0 1:0.75364846 2:0.66143489 3:0.50266063 4:0.67510855 
-0 -24.25146506416637 0 1:0.96935064 2:0.77341807 3:0.79723638 4:0.49108779 
-0 -24.25146506416637 0 1:0.82774466 2:0.65023661 3:0.54966742 4:0.61239296 
-0 -24.25146506416637 0 1:0.9644109 2:0.82301062 3:0.8520776 4:0.43167305 
-24.25146506416637 -0 0 1:0.50007498 2:0.421471 3:0.085867301 4:0.73534852 
-24.25146506416637 -24.25146506416637 0 1:0.89690107 2:0.91419691 3:0.99153101 4:0.94495064 
-0 -24.25146506416637 0 1:1.1718801 2:1.1221657 3:1.1247169 4:0.37885991 
-0 -24.25146506416637 0 1:1.1274225 2:0.99098533 3:1.3143108 4:0.67923456 
-24.25146506416637 -0 0 1:0.66637969 2:0.65343612 3:0.27232748 4:1.50609 
-0 -24.25146506416637 0 1:0.91830659 2:0.60704309 3:0.42588294 4:0.62724668 
-24.25146506416637 -0 0 1:0.59722328 2:0.57344812 3:0.21435247 4:1.0588289 
-24.25146506416637 -0 0 1:0.65485364 2:0.61504191 3:0.48072416 4:0.79311287 
-24.25146506416637 -24.25146506416637 0 1:0.81786513 2:0.79421496 3:0.68755394 4:0.9598043 
-24.25146506416637 -24.25146506416637 0 1:1.0253344 2:1.0421777 3:0.95705938 4:0.69986469 
-0 -24.25146506416637 0 1:0.81621855 2:0.81821132 3:0.74239516 4:0.68501103 
-24.25146506416637 -0 0 1:0.56264508 2:0.54145294 3:0.10310312 4:1.1380486 
-0 -24.25146506416637 0 1:1.0006356 2:1.179757 3:1.8674238 4:0.7328729 
-24.25146506416637 -24.25146506416637 0 1:1.0714387 2:1.173358 3:1.3331136 4:0.97465801 
-0 -24.25146506416637 0 1:1.0072219 2:0.97178823 3:0.92102087 4:0.57030749 
-0 -24.25146506416637 0 1:0.82115829 2:0.7254253 3:0.73142689 4:0.57195789 
-24.25146506416637 -0 0 1:0.57252455 2:0.65983516 3:0.17204638 4:1.2007642 
-24.25146506416637 -24.25146506416637 0 1:0.81127882 2:0.84540725 3:0.85521138 4:0.81621861 
-0 -24.25146506416637 20.525199751363 1:1.4271002 2:0.90619808 3:0.70165598 4:0.47375849 
-24.25146506416637 -0 0 1:0.59886986 2:0.54785198 3:0.19398287 4:0.9111172 
-24.25146506416637 -24.25146506416637 0 1:0.64497411 2:0.72862482 3:0.4305836 4:1.7495255 
-24.25146506416637 -0 0 1:0.69107842 2:0.73022455 3:0.53399849 4:0.99776375 
-0 -24.25146506416637 0 1:1.1768198 2:1.0805719 3:1.4600319 4:0.81291783 
-24.25146506416637 -0 0 1:0.57911086 2:0.64063805 3:0.14227542 4:1.3261954 
-24.25146506416637 -0 0 1:0.60051644 2:0.48546138 3:0.18614841 4:0.79641372 
-0 -24.25146506416637 0 1:0.92489296 2:0.95259112 3:1.0730094 4:0.4886122 
-24.25146506416637 -0 0 1:0.65979338 2:0.52865487 3:0.25509167 4:1.1496015 
-0 -24.25146506416637 0 1:1.0401536 2:1.0645742 3:1.9598705 4:1.1529024 
-24.25146506416637 -24.25146506416637 0 1:0.89525449 2:0.87900221 3:0.86617965 4:0.88388544 
-24.25146506416637 -24.25146506416637 0 1:0.80963224 2:0.80381352 3:0.75493032 4:1.0274712 
-24.25146506416637 -0 0 1:0.60051644 2:0.61024261 3:0.51832956 4:0.99941415 
-0 -24.25146506416637 0 1:1.0154549 2:0.77501786 3:0.56533635 4:0.68666142 
-24.25146506416637 -0 0 1:0.55770534 2:0.48066211 3:0.15481056 4:0.76092988 
-0 -24.25146506416637 0 1:0.8903147 2:0.93339401 3:1.0996466 4:0.75185263 
-0 -24.25146506416637 0 1:0.83433098 2:0.8550058 3:0.87714791 4:0.60084009 
-24.25146506416637 -24.25146506416637 0 1:0.78822666 2:0.77501786 3:0.62174445 4:0.84675121 
-24.25146506416637 -24.25146506416637 0 1:0.91995317 2:0.95259112 3:0.91005266 4:1.0208695 
-0 -24.25146506416637 0 1:1.0450934 2:0.97658753 3:0.96019316 4:0.30624187 
-0 -24.25146506416637 0 1:0.75858825 2:0.65983516 3:0.72829312 4:0.93339777 
-0 -24.25146506416637 0 1:1.0846113 2:0.95899016 3:1.1732905 4:0.90699118 
-24.25146506416637 -0 0 1:0.62521517 2:0.54625225 3:0.21905315 4:0.83932436 
-24.25146506416637 -0 0 1:0.68613863 2:0.50785804 3:0.22532071 4:0.81126738 
-24.25146506416637 -0 0 1:0.62686175 2:0.67583275 3:0.26135924 4:1.2354228 
-24.25146506416637 -0 0 1:0.69437158 2:0.69183034 3:0.40081266 4:1.095138 
-24.25146506416637 -24.25146506416637 0 1:0.94959164 2:1.1669589 3:1.0839777 4:0.97630841 
-24.25146506416637 -0 0 1:0.65485364 2:0.5702486 3:0.37574238 4:0.85665369 
-24.25146506416637 -24.25146506416637 0 1:0.79645962 2:0.73822337 3:0.51519579 4:1.0200443 
-24.25146506416637 -24.25146506416637 0 1:1.0500331 2:0.92699498 3:0.73612761 4:0.77413315 
-24.25146506416637 -24.25146506416637 0 1:0.86396945 2:0.80861276 3:0.51049513 4:0.78898686 
-24.25146506416637 -0 0 1:0.45891044 2:0.34308279 3:-0.052019216 4:0.93752378 
-0 -24.25146506416637 0 1:0.86890918 2:0.81821132 3:0.93512291 4:0.6066165 
-24.25146506416637 -24.25146506416637 0 1:0.89854765 2:0.93179429 3:0.90221816 4:0.80219012 
-24.25146506416637 -0 0 1:0.51160103 2:0.49985921 3:0.11720515 4:1.0769835 
-24.25146506416637 -24.25146506416637 0 1:1.7070191 2:1.139763 3:0.87244719 4:1.1883861 
-24.25146506416637 -24.25146506416637 0 1:0.92159975 2:0.95259112 3:0.78156745 4:1.0769835 
-24.25146506416637 -0 0 1:0.58075744 2:0.75102144 3:0.12347271 4:1.6158423 
-0 -24.25146506416637 0 1:1.2031652 2:1.1925551 3:1.616721 4:0.74442577 
-24.25146506416637 -24.25146506416637 0 1:0.70919079 2:0.78141689 3:0.76433164 4:0.82859671 
-24.25146506416637 -24.25146506416637 0 1:1.4452126 2:1.2181512 3:1.0150344 4:0.87728381 
-24.25146506416637 -24.25146506416637 0 1:1.0566194 2:1.0501765 3:1.1325513 4:0.85170245 
-0 -24.25146506416637 0 1:0.85244334 2:0.78941566 3:0.81290531 4:0.64127517 
-0 -24.25146506416637 0 1:0.81951171 2:0.82621014 3:1.1059141 4:0.9886865 
-24.25146506416637 -24.25146506416637 0 1:1.0302742 2:0.9093976 3:0.7502296 4:0.87975943 
-0 -24.25146506416637 0 1:0.80469251 2:0.80701303 3:0.91788709 4:0.61816937 
-0 -24.25146506416637 0 1:1.2443297 2:1.1701584 3:1.1576216 4:0.48118535 
-24.25146506416637 -24.25146506416637 0 1:0.75200188 2:0.81021255 3:0.58883971 4:1.135573 
-0 -24.25146506416637 0 1:0.90842712 2:0.8550058 3:0.80820465 4:0.25507915 
-0 -24.25146506416637 24.25146506416637 1:1.2459763 2:1.1557605 3:1.0573405 4:0.38546154 
-24.25146506416637 -0 0 1:0.70260447 2:0.60064405 3:0.28486261 4:1.1083412 
-0 -24.25146506416637 0 1:0.73059636 2:0.75422096 3:0.98369658 4:0.6536532 
-24.25146506416637 -24.25146506416637 0 1:1.2953737 2:0.97978705 3:0.69538838 4:0.87480819 
-0 -24.25146506416637 0 1:0.80633909 2:0.73342407 3:0.80507088 4:0.69903952 
-24.25146506416637 -24.25146506416637 0 1:0.91830659 2:0.92699498 3:0.92102087 4:0.96475554 
-24.25146506416637 -24.25146506416637 0 1:0.85244334 2:0.76221979 3:0.59197348 4:1.2733823 
-24.25146506416637 -24.25146506416637 0 1:0.96276432 2:0.99098533 3:0.9163202 4:0.73122251 
-24.25146506416637 -24.25146506416637 0 1:0.81786513 2:0.86620414 3:0.87401408 4:0.74442577 
-24.25146506416637 -24.25146506416637 0 1:0.80469251 2:0.74462241 3:0.57003701 4:0.77165753 
-24.25146506416637 -24.25146506416637 0 1:1.2525626 2:1.1829565 3:0.91161954 4:0.54637653 
-24.25146506416637 -24.25146506416637 0 1:0.85738313 2:0.71742648 3:0.40864712 4:0.96310514 
-24.25146506416637 -24.25146506416637 0 1:0.77999377 2:0.72862482 3:0.52773094 4:1.095138 
-24.25146506416637 -24.25146506416637 0 1:0.93312585 2:0.97818726 3:0.80663776 4:0.62972224 
-24.25146506416637 -24.25146506416637 0 1:1.5604733 2:1.5668987 3:1.6590271 4:0.93009692 
-24.25146506416637 -24.25146506416637 0 1:0.93641901 2:0.96858871 3:1.0542067 4:0.84179997 
-24.25146506416637 -24.25146506416637 0 1:0.8475036 2:0.9093976 3:0.8912499 4:1.1017396 
-0 -24.25146506416637 0 1:0.80139935 2:0.76221979 3:1.0103338 4:0.48118535 
-0 -24.25146506416637 0 1:1.5950515 2:1.3413327 3:1.2955081 4:0.62064499 
-24.25146506416637 -0 0 1:0.58899039 2:0.62943971 3:0.052962564 4:1.3030896 
-24.25146506416637 -24.25146506416637 0 1:0.74541557 2:0.76381952 3:0.53869915 4:0.98951173 
-24.25146506416637 -24.25146506416637 0 1:1.0203947 2:0.99258512 3:1.1184493 4:0.95072705 
-0 -24.25146506416637 0 1:0.92159975 2:0.94139284 3:1.1842588 4:0.9218449 
-24.25146506416637 -24.25146506416637 0 1:1.2558558 2:1.3733279 3:1.7405056 4:1.0233451 
-24.25146506416637 -24.25146506416637 0 1:0.95453137 2:1.0325791 3:0.93198913 4:0.96310514 
-0 -24.25146506416637 0 1:0.96276432 2:0.94619209 3:1.2234311 4:0.63137269 
-24.25146506416637 -24.25146506416637 0 1:1.0171015 2:1.0469769 3:1.0855446 4:0.77248275 
-24.25146506416637 -24.25146506416637 0 1:0.87384892 2:0.79741448 3:0.78156745 4:0.8426252 
-0 -24.25146506416637 0 1:0.73882926 2:0.63903826 3:0.55436808 4:0.78403562 
-0 -24.25146506416637 0 1:0.7898733 2:0.65183634 3:0.71732485 4:0.12882276 
-24.25146506416637 -0 0 1:0.5955767 2:0.47746259 3:0.099969335 4:0.86573094 
-0.6690303237341162 -24.25146506416637 0 1:0.82115829 2:0.82461035 3:0.67031813 4:0.61156774 
-0 -24.25146506416637 0 1:0.87055576 2:0.65663564 3:0.55436808 4:0.37390867 
-24.25146506416637 -24.25146506416637 0 1:0.87055576 2:0.85020655 3:0.70165598 4:1.0646054 
-0 -24.25146506416637 0 1:0.72730321 2:0.6854313 3:0.61391002 4:0.53647411 
-24.25146506416637 -24.25146506416637 0 1:1.1060169 2:1.1093676 3:1.3613176 4:0.93669856 
-24.25146506416637 -24.25146506416637 0 1:0.74870872 2:0.74782193 3:0.68128633 4:0.84675121 
-24.25146506416637 -0 0 1:0.50995445 2:0.43266931 3:-0.072388813 4:1.2065407 
-0 -24.25146506416637 0 1:1.026981 2:0.9301945 3:1.2532021 4:0.65942967 
